tree
version=v4
num_class=1
num_tree_per_iteration=1
label_index=0
max_feature_idx=75
objective=quantile
feature_names=Zone Latitude Longitude Elevation_m MaxTemp_C MinTemp_C AvgTemp_C Rainfall_mm Humidity_pct organisationunitid Travel ADM3_PCODE g_year g_month g_month_sin g_month_cos ec_month month_index Rainfall_mm_lag1 Rainfall_mm_lag2 Rainfall_mm_lag3 Rainfall_mm_roll3_mean Rainfall_mm_roll6_mean AvgTemp_C_lag1 AvgTemp_C_lag2 AvgTemp_C_lag3 AvgTemp_C_roll3_mean AvgTemp_C_roll6_mean MaxTemp_C_lag1 MaxTemp_C_lag2 MaxTemp_C_lag3 MaxTemp_C_roll3_mean MaxTemp_C_roll6_mean MinTemp_C_lag1 MinTemp_C_lag2 MinTemp_C_lag3 MinTemp_C_roll3_mean MinTemp_C_roll6_mean Humidity_pct_lag1 Humidity_pct_lag2 Humidity_pct_lag3 Humidity_pct_roll3_mean Humidity_pct_roll6_mean Rainfall_mm_roll3_sum positive_lag1 positive_lag2 positive_lag3 tests_lag1 tests_lag2 tests_lag3 positivity_rate_lag1 positivity_rate_lag2 positivity_rate_lag3 is_warm baseline_rainfall baseline_avgtemp rainfall_anomaly temp_anomaly is_highland region_Addis_Ababa_City_Administration region_Afar_Region region_Amhara_Region region_Benishangul_Gumuz_Region region_Central_Ethiopian_Region region_Dire_Dawa_City_Administration region_Gambella_Region region_Harari_Region region_Oromia_Region region_Sidama_Region region_Somali_Region region_South_Ethiopia_Region region_South_West_Ethiopia_Region region_Tigray_Region csrc_direct csrc_imp_r_m csrc_imp_z_m
feature_infos=-1:101:14:137:134:40:28:135:49:69:59:122:132:42:38:44:71:26:58:102:114:128:47:119:124:30:41:51:56:64:65:76:103:121:141:16:54:67:75:23:82:111:115:143:17:24:104:123:131:133:142:6:15:19:37:43:129:136:36:45:118:126:0:27:35:39:85:90:92:98:99:100:106:108:120:144:3:7:73:79:80:105:112:130:145:146:29:61:140:81:89:125:9:18:20:25:50:62:87:107:1:2:4:5:8:10:11:12:13:21:22:31:32:33:34:46:48:52:53:55:57:60:63:66:68:70:72:74:77:78:83:84:86:88:91:93:94:95:96:97:109:110:113:116:117:127:138 [3.7519:14.5246] [33.271599999999999:47.339399999999998] [88.200000000000003:3393.6999999999998] [11.24:43.890000000000001] [1.24:33.890000000000001] [6.2400000000000002:38.890000000000001] [0.085000000000000006:478.68000000000001] [13.800000000000001:93.200000000000003] -1:0:1:2:3:4:5:6:7:8:9:10:11:12:13:14:15:16:17:18:19:20:21:22:23:24:25:26:27:28:29:30:31:32:33:34:35:36:37:38:39:40:41:42:43:44:45:46:47:48:49:50:51:52:53:54:55:56:57:58:59:60:61:62:63:64:65:66:67:68:69:70:71:72:73:74:75:76:77:78:79:80:81:82:83:84:85:86:87:88:89:90:91:92:93:94:95:96:97:98:99:100:101:102:103:104:105:106:107:108:109:110:111:112:113:114:115:116:117:118:119:120:121:122:123:124:125:126:127:128:129:130:131:132:133:134:135:136:137:138:139:140:141:142:143:144:145:146:147:148:149:150:151:152:153:154:155:156:157:158:159:160:161:162:163:164:165:166:167:168:169:170:171:172:173:174:175:176:177:178:179:180:181:182:183:184:185:186:187:188:189:190:191:192:193:194:195:196:197:198:199:200:201:202:203:204:205:206:207:208:209:210:211:212:213:214:215:216:217:218:219:220:221:222:223:224:225:226:227:228:229:230:231:232:233:234:235:236:237:238:239:240:241:242:243:244:245:246:247:248:249:250:251:252:253:254:255:256:257:258:259:260:261:262:263:264:265:266:267:268:269:270:271:272:273:274:275:276:277:278:279:280:281:282:283:284:285:286:287:288:289:290:291:292:293:294:295:296:297:298:299:300:301:302:303:304:305:306:307:308:309:310:311:312:313:314:315:316:317:318:319:320:321:322:323:324:325:326:327:328:329:330:331:332:333:334:335:336:337:338:339:340:341:342:343:344:345:346:347:348:349:350:351:352:353:354:355:356:357:358:359:360:361:362:363:364:365:366:367:368:369:370:371:372:373:374:375:376:377:378:379:380:381:382:383:384:385:386:387:388:389:390:391:392:393:394:395:396:397:398:399:400:401:402:403:404:405:406:407:408:409:410:411:412:413:414:415:416:417:418:419:420:421:422:423:424:425:426:427:428:429:430:431:432:433:434:435:436:437:438:439:440:441:442:443:444:445:446:447:448:449:450:451:452:453:454:455:456:457:458:459:460:461:462:463:464:465:466:467:468:469:470:471:472:473:474:475:476:477:478:479:480:481:482:483:484:485:486:487:488:489:490:491:492:493:494:495:496:497:498:499:500:501:502:503:504:505:506:507:508:509:510:511:512:513:514:515:516:517:518:519:520:521:522:523:524:525:526:527:528:529:530:531:532:533:534:535:536:537:538:539:540:541:542:543:544:545:546:547:548:549:550:551:552:553:554:555:556:557:558:559:560:561:562:563:564:565:566:567:568:569:570:571:572:573:574:575:576:577:578:579:580:581:582:583:584:585:586:587:588:589:590:591:592:593:594:595:596:597:598:599:600:601:602:603:604:605:606:607:608:609:610:611:612:613:614:615:616:617:618:619:620:621:622:623:624:625:626:627:628:629:630:631:632:633:634:635:636:637:638:639:640:641:642:643:644:645:646:647:648:649:650:651:652:653:654:655:656:657:658:659:660:661:662:663:664:665:666:667:668:669:670:671:672:673:674:675:676:677:678:679:680:681:682:683:684:685:686:687:688:689:690:691:692:693:694:695:696:697:698:699:700:701:702:703:704:705:706:707:708:709:710:711:712:713:714:715:716:717:718:719:720:721:722:723:724:725:726:727:728:729:730:731:732:733:734:735:736:737:738:739:740:741:742:743:744:745:746:747:748:749:750:751:752:753:754:755:756:757:758:759:760:761:762:763:764:765:766:767:768:769:770:771:772:773:774:775:776:777:778:779:780:781:782:783:784:785:786:787:788:789:790:791:792:793:794:795:796:797:798:799:800:801:802:803:804:805:806:807:808:809:810:811:812:813:814:815:816:817:818:819:820:821:822:823:824:825:826:827:828:829:830:831:832:833:834:835:836:837:838:839:840:841:842:843:844:845:846:847:848:849:850:851:852:853:854:855:856:857:858:859:860:861:862:863:864:865:866:867:868:869:870:871:872:873:874:875:876:877:878:879:880:881:882:883:884:885:886:887:888:889:890:891:892:893:894:895:896:897:898:899:900:901:902:903:904:905:906:907:908:909:910:911:912:913:914:915:916:917:918:919:920:921:922:923:924:925:926:927:928:929:930:931:932:933:934:935:936:937:938:939:940:941:942:943:944:945:946:947:948:949:950:951:952:953:954:955:956:957:958:959:960:961:962:963:964:965:966:967:968:969:970:971:972:973:974:975:976:977:978:979:980:981:982:983:984:985:986:987:988:989:990:991:992:993:994:995:996:997:998:999:1000:1001:1002:1003:1004:1005:1006:1007:1008:1009:1010:1011:1012:1013:1014:1015:1016:1017:1018:1019:1020:1021:1022:1023:1024:1025:1026:1027:1028:1029:1030:1031:1032:1033:1034:1035:1036:1037:1038:1039:1040:1041:1042:1043:1044:1045:1046:1047:1048:1049:1050:1051:1052:1053:1054:1055:1056:1057:1058:1059:1060:1061:1062:1063:1064:1065:1066:1067:1068:1069:1070:1071:1072:1073:1074:1075:1076:1077:1078:1079:1080:1081:1082:1083:1084:1085:1086:1087:1088:1089:1090:1091:1092:1093:1094:1095:1096 [0:351.61000000000058] -1:259:293:418:207:444:467:687:800:4:8:13:15:18:20:21:34:35:36:76:78:80:81:88:95:96:101:111:116:121:122:125:132:141:151:198:201:213:218:230:235:244:252:254:261:272:289:296:301:307:318:329:334:342:352:353:357:369:378:380:390:402:406:410:412:419:427:431:434:441:443:447:452:455:462:463:466:479:486:487:493:494:496:498:500:509:532:533:534:542:556:562:570:577:585:599:609:619:622:635:646:656:657:666:669:682:683:688:693:694:696:697:698:699:700:707:709:710:713:745:756:772:775:784:799:801:803:811:824:877:879:881:882:884:0:1:2:3:5:6:7:9:10:11:12:14:16:17:19:22:23:24:25:26:27:28:29:30:31:32:33:37:38:39:40:41:42:43:44:45:46:47:48:49:50:51:52:53:54:55:56:57:58:59:60:61:62:63:64:65:66:67:68:69:70:71:72:73:74:75:77:79:82:83:84:85:86:87:89:90:91:92:93:94:97:98:99:100:102:103:104:105:106:107:108:109:110:112:113:114:115:117:118:119:120:123:124:126:127:128:129:130:131:133:134:135:136:137:138:139:140:142:143:144:145:146:147:148:149:150:152:153:154:155:156:157:158:159:160:161:162:163:164:165:166:167:168:169:170:171:172:173:174:175:176:177:178:179:180:181:182:183:184:185:186:187:188:189:190:191:192:193:194:195:196:197:199:200:202:203:204:205:206:208:209:210:211:212:214:215:216:217:219:220:221:222:223:224:225:226:227:228:229:231:232:233:234:236:237:238:239:240:241:242:243:245:246:247:248:249:250:251:253:255:256:257:258:260:262:263:264:265:266:267:268:269:270:271:273:274:275:276:277:278:279:280:281:282:283:284:285:286:287:288:290:291:292:294:295:297:298:299:300:302:303:304:305:306:308:309:310:311:312:313:314:315:316:317:319:320:321:322:323:324:325:326:327:328:330:331:332:333:335:336:337:338:339:340:341:343:344:345:346:347:348:349:350:351:354:355:356:358:359:360:361:362:363:364:365:366:367:368:370:371:372:373:374:375:376:377:379:381:382:383:384:385:386:387:388:389:391:392:393:394:395:396:397:398:399:400:401:403:404:405:407:408:409:411:413:414:415:416:417:420:421:422:423:424:425:426:428:429:430:432:433:435:436:437:438:439:440:442:445:446:448:449:450:451:453:454:456:457:458:459:460:461:464:465:468:469:470:471:472:473:474:475:476:477:478:480:481:482:483:484:485:488:489:490:491:492:495:497:499:501:502:503:504:505:506:507:508:510:511:512:513:514:515:516:517:518:519:520:521:522:523:524:525:526:527:528:529:530:531:535:536:537:538:539:540:541:543:544:545:546:547:548:549:550:551:552:553:554:555:557:558:559:560:561:563:564:565:566:567:568:569:571:572:573:574:575:576:578:579:580:581:582:583:584:586:587:588:589:590:591:592:593:594:595:596:597:598:600:601:602:603:604:605:606:607:608:610:611:612:613:614:615:616:617:618:620:621:623:624:625:626:627:628:629:630:631:632:633:634:636:637:638:639:640:641:642:643:644:645:647:648:649:650:651:652:653:654:655:658:659:660:661:662:663:664:665:667:668:670:671:672:673:674:675:676:677:678:679:680:681:684:685:686:689:690:691:692:695:701:702:703:704:705:706:708:711:712:714:715:716:717:718:719:720:721:722:723:724:725:726:727:728:729:730:731:732:733:734:735:736:737:738:739:740:741:742:743:744:746:747:748:749:750:751:752:753:754:755:757:758:759:760:761:762:763:764:765:766:767:768:769:770:771:773:774:776:777:778:779:780:781:782:783:785:786:787:788:789:790:791:792:793:794:795:796:797:798:802:804:805:806:807:808:809:810:812:813:814:815:816:817:818:819:820:821:822:823:825:826:827:828:829:830:831:832:833:834:835:836:837:838:839:840:841:842:843:844:845:846:847:848:849:850:851:852:853:854:855:856:857:858:859:860:861:862:863:864:865:866:867:868:869:870:871:872:873:874:875:876:878:880:883:885:886:887 [2021:2024] [1:12] [-1:1] [-1:1] [1:12] [3:41] [0.085000000000000006:478.68000000000001] [0.085000000000000006:478.68000000000001] [0.085000000000000006:541.00199999999995] [0.21133333333333335:430.71266666666662] [2.3273333333333333:364.33733333333339] [6.2400000000000002:38.890000000000001] [6.2400000000000002:38.890000000000001] [6.2400000000000002:38.890000000000001] [6.419999999999999:38.193333333333328] [6.9100000000000001:37.183333333333337] [11.24:43.890000000000001] [11.24:43.890000000000001] [11.24:43.890000000000001] [11.420000000000002:43.193333333333328] [11.910000000000002:42.183333333333337] [1.24:33.890000000000001] [1.24:33.890000000000001] [1.24:33.890000000000001] [1.4199999999999999:33.193333333333328] [1.9099999999999999:32.18333333333333] [13.800000000000001:93.200000000000003] [13.800000000000001:93.200000000000003] [13.800000000000001:93.200000000000003] [15.533333333333333:91.033333333333346] [19.449999999999999:89.133333333333326] [0.63400000000000001:1292.1379999999999] [0:50200] [0:50200] [0:50200] [0:67822] [0:67822] [0:67822] [0:100] [0:100] [0:100] none [0.088333333333333333:468.45224999999999] [7.1000000000000005:37.886666666666663] [-127.87550000000002:186.98874999999998] [-2.4949999999999974:3.1774999999999984] [0:1] [0:1] [0:1] [0:1] [0:1] [0:1] [0:1] [0:1] [0:1] [0:1] [0:1] [0:1] [0:1] [0:1] [0:1] [0:1] [0:1] [0:1]
tree_sizes=5368 5853 5734 5969 5771 6139 6003 6094 6586 6316 6165 6349 6193 6253 6406 6372 6502 6368 6364 6792 6848 7003 6981 6687 6707 6807 6966 7197 6785 6535 7418 6983 7263 7037 7270 7558 7586 6843 7372 7282 7160 7365 7746 7123 7487 7870 7876 7891 7021 7441 7574 7438 7708 7606 7460 7409 7700 5337 7280 7920 7949 8097 7810 7472 8171 7936 7876 8041 8026 7972 7977 8143 8320 5992 7502 8387 7859 8086 8558 8024 6045 7833 7395 8468 7949 8733 8028 8633 8178 8469 8175 8068 8609 8535 8105 8939 8277 8982 8435 8617 8534 6065 8601 8116 8425 8559 8394 8754 8764 8614 8339 9093 7290 8276 5465 8594 7822 8030 8348 8010 5362 8037 7873 8180 8495 9216 8981 9548 8952 9271 8629 8916 8494 8473 8668 9008 8773 8974 8988 8981 8624 9085 9154 7984 8700 8672 8521 8343 8101 8851 8864 8778 8718 8974 8951 8295 8736 8306 7647 9289 8932 8117 9323 9740 9236 8219 9221 9201 9040 8997 10017 8502 7594 8286 9108 8567 8740 8494 8667 9902 8233 5984 8343 8526 8780 9103 8342 9483 9023 8113 8996 8844 8891 8180 8787 9030 9671 9376 8644 9201 8698 9133 9625 9401 6103 8397 10221 10056 9462 9586 10544 9705 10127 8179 8764 10167 9775 9889 9373 8522 8800 8935 10012 9664 9797 8561 9429 9794 9440 9319 9231 9305 9552 9612 9105 8461 9364 8393 9202 9129 9592 8036 9514 9195 6135 9736 9062 8349 9588 8724 8457 10094 9648 9641 6121 9146 9834 8891 9319 8965 9497 9804 9326 9210 9403 9527 8553 8871 9042 9529 9752 8409 10144 7903 9584 9110 7635 8280 8335 8396 9478 8769 8752 9695 8485 8432 8522 8661 8490 7685 9224 8327 8397 9553 7871 9997 9902 10111 10253 10037 9408 9515 9660 7916 8698 9145 9244 8968 9689 9867 8061 8292 9455 8463 8946 8908 10123 8668 8410 7247

Tree=0
num_leaves=63
num_cat=11
split_feature=44 10 44 45 11 10 0 72 10 11 0 0 54 17 15 0 14 14 11 48 22 55 0 44 48 54 14 10 2 11 10 46 11 50 19 43 45 10 45 54 1 46 17 55 48 57 0 50 14 14 20 55 1 26 51 48 18 48 18 16 2 41
split_gain=2722.33 227.083 87.1635 69.6768 44.9111 32.0742 22.9486 20.1822 16.9892 16.1858 14.7188 14.0859 17.4548 29.5844 12.7952 22.4415 9.82027 9.58789 9.04142 7.63796 7.60259 7.03536 6.92581 5.5296 5.36799 5.07466 4.57923 6.03905 4 3.97758 5.98563 3.9504 3.85481 3.82988 3.82061 3.52605 3.43691 3.16979 3.25013 3.09202 3.05788 2.88975 2.84367 2.73064 3.7366 2.7109 2.6201 3.52966 2.58549 4.11068 3.32716 5.62753 3.17525 5.68185 2.51088 2.42535 2.39523 2.87768 2.29165 2.28697 2.28608 2.28038
threshold=1.0000000180025095e-35 1.0000000180025095e-35 3.5000000000000004 1.0000000180025095e-35 0 1.0000000180025095e-35 1 1.0000000180025095e-35 1.0000000180025095e-35 2 3 4 167.90637500000003 24.500000000000004 -0.24999999999999997 5 1.0000000180025095e-35 -0.5 6 1.0000000180025095e-35 89.938416666666683 20.285000000000004 7 1.5000000000000002 7.5000000000000009 131.69454166666671 -0.5 1.0000000180025095e-35 38.787900000000008 8 1.0000000180025095e-35 1.0000000180025095e-35 9 9.818651632605123 68.737000000000009 125.399 1.0000000180025095e-35 1.5000000000000002 2.5000000000000004 1.1586666666666667 8.9283000000000019 1.5000000000000002 9.5000000000000018 21.831250000000004 1.5000000000000002 -0.39416666666666694 10 26.550062913193702 1.0000000180025095e-35 -0.5 39.801500000000011 16.054166666666671 12.6241 28.661666666666669 11.691783812101635 42.500000000000007 19.336500000000004 56.500000000000007 46.882500000000007 2.5000000000000004 41.88235000000001 53.045000000000009
decision_type=2 2 2 2 9 2 9 2 2 9 9 9 10 2 2 9 2 2 9 2 2 8 9 2 2 8 2 2 2 9 2 2 9 2 2 2 2 2 2 10 2 2 2 10 2 10 9 2 2 2 2 8 2 2 2 2 2 2 2 2 2 2
left_child=1 3 5 14 8 9 16 22 17 -2 23 12 29 28 15 21 -3 20 26 60 -4 -1 25 33 31 -5 -13 34 -14 -6 39 48 -20 56 -28 -25 -34 38 61 -31 -26 58 -8 44 -18 -35 55 -48 49 -17 -51 -52 -50 -54 -43 -19 -11 -58 -12 -24 -16 -7
right_child=2 6 4 7 11 37 42 -9 -10 10 41 18 13 -15 19 24 43 46 32 -21 -22 -23 59 35 40 -27 27 -29 -30 30 -32 -33 36 45 -36 -37 -38 -39 -40 -41 -42 54 -44 -45 -46 -47 47 -49 52 50 51 -53 53 -55 -56 -57 57 -59 -60 -61 -62 -63
leaf_value=0 0.020794415473937986 0 0 0 0.058377302885055542 0 0 0 0.053752784729003904 0 0 0.048283138275146485 0 0.072980996536426798 0 0 0 0 0.024443615619445254 0 0.07694847822189331 0.026876393361415649 0 0 0 0 0 0.032958369255065914 0 0 0.062383246421813962 0 0 0 0 0 0.074547200202941893 0.020794415473937986 0.020794415473937986 0 0 0 0.020794415473937986 0 0 0 0 0 0 0 0 0 0 0 0 0 0 0 0 0 0 0
leaf_weight=58 321 56 80 276 721 162 125 149 175 51 113 284 50 105 2407 166 51 52 774 361 79 56 56 167 129 51 88 112 50 139 563 90 158 62 84 232 23267 697 157 670 55 280 378 50 50 129 50 76 575 64 78 94 50 58 147 50 122 60 147 417 119 150
leaf_count=58 321 56 80 276 721 162 125 149 175 51 113 284 50 105 2407 166 51 52 774 361 79 56 56 167 129 51 88 112 50 139 563 90 158 62 84 232 23267 697 157 670 55 280 378 50 50 129 50 76 575 64 78 94 50 58 147 50 122 60 147 417 119 150
internal_value=-0.00184185 -0.0202863 0.00178331 -0.0224172 0.00231046 -0.00307608 -0.00435211 -0.0150506 -0.00602098 -0.0055527 -0.00682895 0.00248476 0.000231369 -0.00812195 -0.0240206 -0.0217454 -0.0124839 -0.00963566 0.00269367 -0.0251815 -0.00398113 -0.00667742 -0.0131625 -0.00956903 -0.0227925 -0.0169407 -0.00104844 -0.00376056 -0.0198 0.00105065 9.11723e-05 -0.0237064 0.0027819 -0.0120708 -0.0072907 -0.00715038 0.0028515 0.000813036 -0.00109382 -0.00156119 -0.0181957 -0.00345624 -0.00074269 -0.0170662 -0.0142277 -0.0152199 -0.0135789 -0.0168529 -0.0242074 -0.0222985 -0.0197542 -0.0175814 -0.0253309 -0.0206111 -0.00198829 -0.00717857 -0.00948927 -0.00787912 -0.006 -0.00998137 -0.0257648 -0.00286538
internal_weight=36643 6019 30624 5309 27627 2997 710 949 562 1831 1510 27065 2298 205 4360 1473 207 387 24767 2887 159 114 800 823 1359 327 568 284 100 2093 1372 1175 24199 424 172 399 23425 1166 469 809 184 687 503 151 101 191 228 126 1085 402 236 172 683 108 427 102 233 182 260 473 2526 312
internal_count=36643 6019 30624 5309 27627 2997 710 949 562 1831 1510 27065 2298 205 4360 1473 207 387 24767 2887 159 114 800 823 1359 327 568 284 100 2093 1372 1175 24199 424 172 399 23425 1166 469 809 184 687 503 151 101 191 228 126 1085 402 236 172 683 108 427 102 233 182 260 473 2526 312
cat_boundaries=0 28 33 60 65 69 73 101 106 126 154 158
cat_threshold=1073742336 16 1024 0 0 0 0 134217728 0 0 524288 0 0 512 1024 2164260864 0 276824064 1375823904 5242890 768 0 0 24576 0 67108864 0 8388608 16384 205684736 0 0 16896 0 1024 0 0 0 512 0 0 0 0 33697792 0 469762084 8192 0 536870912 1024 1026 128 524288 0 32768 0 0 0 0 1073742976 147456 151171448 2097160 301989920 1 268435456 45080 69599240 274759748 268435456 135168 67108864 4194304 0 0 268435456 24 0 16 0 0 0 0 2048 16777216 65536 2097152 2164260868 65536 287808 0 0 16 1073774592 0 327696 2415919360 8 268959744 0 8 147456 134905864 0 32804 16385 20488261 65540 64 0 0 0 0 0 0 0 0 0 0 8388608 0 0 2147483648 608175104 10621442 573440 0 0 603979776 0 134217728 4096 0 0 135168 0 0 272629760 134383744 1572864 67112960 0 65536 4128 0 1088 262272 1049376 0 1536 0 0 2 4096 536870912 0 262152 4194816
is_linear=0
shrinkage=0.03


Tree=1
num_leaves=63
num_cat=9
split_feature=44 10 9 45 44 9 0 10 47 10 47 9 47 14 14 16 16 1 0 54 17 13 10 11 20 2 14 46 13 19 9 44 19 47 3 1 12 49 1 2 54 17 17 14 55 48 10 55 49 9 10 44 9 45 41 23 19 25 55 22 2 14
split_gain=2722.33 227.083 91.8089 69.6768 55.6981 34.2381 22.9486 22.0933 21.8958 18.0885 16.5175 12.1036 13.001 11.6931 11.3652 10.5898 10.3815 18.3004 10.1617 16.9248 27.5233 9.82027 9.35466 9.18163 8.48413 6.57575 5.4873 5.46113 5.2942 5.99287 4.84671 4.80211 4.5 4.48083 4.41781 4.35251 4.07144 3.34083 3.27232 3.2444 3.13711 3.01045 2.84367 2.75977 2.73064 3.7366 2.69752 2.65736 2.72788 2.55286 3.0025 2.52862 2.46764 2.46225 2.4918 2.86947 2.40335 8.44644 2.39483 2.42834 2.38444 2.3438
threshold=1.0000000180025095e-35 1.0000000180025095e-35 0 1.0000000180025095e-35 3.5000000000000004 1 2 1.0000000180025095e-35 1.5000000000000002 1.0000000180025095e-35 1.0000000180025095e-35 3 7.5000000000000009 -0.24999999999999997 -0.5 11.500000000000002 7.5000000000000009 14.104700000000001 4 167.90637500000003 24.500000000000004 6.5000000000000009 1.0000000180025095e-35 5 16.158000000000005 38.359600000000007 -0.24999999999999997 1.5000000000000002 4.5000000000000009 28.744500000000006 6 26.500000000000004 37.577000000000005 21.500000000000004 2511.9000000000001 9.7525000000000031 2023.5000000000002 4.5000000000000009 6.2636500000000011 38.72975000000001 33.641583333333337 18.500000000000004 9.5000000000000018 -0.24999999999999997 21.831250000000004 1.5000000000000002 1.5000000000000002 19.233750000000004 9.5000000000000018 7 1.0000000180025095e-35 39.500000000000007 8 2.5000000000000004 52.415000000000013 18.365000000000006 16.663500000000003 24.345000000000002 20.872916666666672 29.106333333333335 41.88235000000001 -0.6830127018922193
decision_type=2 2 9 2 2 9 9 2 2 2 2 9 2 2 2 2 2 2 9 10 2 2 2 9 2 2 2 2 2 2 9 2 2 2 2 2 2 2 2 2 10 2 2 2 10 2 2 8 2 9 2 2 9 2 2 2 2 2 8 2 2 2
left_child=1 3 9 10 7 14 21 11 15 13 16 -4 47 33 31 26 60 38 19 49 -21 44 24 28 -16 -12 -5 -14 29 -20 -25 -6 -15 -2 39 -27 51 -28 -18 -10 -39 -29 -8 -11 45 -3 53 48 -13 -7 -51 -26 61 54 55 -9 57 -40 -41 -60 -1 -30
right_child=2 6 4 8 5 18 42 46 34 43 25 12 27 32 22 -17 17 -19 23 20 -22 -23 -24 30 36 35 37 41 52 -31 -32 -33 -34 -35 -36 -37 -38 40 56 58 -42 -43 -44 -45 -46 -47 -48 -49 -50 50 -52 -53 -54 -55 -56 -57 -58 -59 59 -61 -62 -63
leaf_value=0 0 0 0.020170583009719849 0 0 0.056625983798503872 0 0 0 0.020170583009719849 0 0 0 0 0 0 0 0 0 0 0.070269498608872924 0 0.06077066287994385 0.01855799946784973 -7.3330782388164364e-05 0 0 9.3175183728533267e-09 0.05316733804892991 -0.00073330846858335756 0.069700444078445431 0.087427586388743525 0 0 0 0 0 0 0 0 0 0 0.020170583009719849 -0.00062383246421813957 0 0 0.020170583009719849 0 0 0 0.056505805492401119 0 0.061888871347094455 0.020170583009719849 0.020794415473937986 0 0 0 0 0 0 -0.00073330846858335756
leaf_weight=2393 52 51 313 94 72 684 125 53 99 87 64 144 448 100 70 140 92 52 99 97 103 56 69 657 60 572 84 311 102 54 23513 194 100 126 70 51 52 113 53 109 71 276 378 58 50 50 662 90 50 648 409 52 316 155 138 93 843 119 59 110 121 117
leaf_count=2393 52 51 313 94 72 684 125 53 99 87 64 144 448 100 70 140 92 52 99 97 103 56 69 657 60 572 84 311 102 54 23513 194 100 126 70 51 52 113 53 109 71 276 378 58 50 50 662 90 50 648 409 52 316 155 138 93 843 119 59 110 121 117
internal_value=-0.00184185 -0.0202863 0.00178331 -0.0224172 0.0020007 0.00240916 -0.00435211 -0.00208233 -0.0150506 -0.0105647 -0.0240206 -0.00429779 -0.00553273 -0.0142222 -0.00482383 -0.0193506 -0.0248192 -0.0224702 0.00256358 0.00046284 -0.0078 -0.0124839 -0.00888119 0.00272736 -0.0117436 -0.0197511 -0.0166409 -0.00401449 -0.000696275 -0.00562745 0.00282506 -0.000383459 -0.0192 -0.00862921 -0.0102215 -0.0206918 -0.0154756 -0.0188284 -0.0232873 -0.00893634 -0.0165652 -0.00211073 -0.00074269 -0.00175862 -0.0170662 -0.0142277 0.00120163 -0.0112606 -0.0132371 0.0014147 0.000469541 -0.0186964 0.000700935 -0.000621868 -0.00228169 -0.0050137 -0.0237783 -0.0205465 -0.0105971 -0.00836095 -0.0259021 -0.00171616
internal_weight=36643 6019 30624 5309 30101 27368 710 2733 949 523 4360 1632 1319 378 569 502 3673 1159 26799 1941 200 207 303 24858 234 687 362 1035 688 153 24170 266 200 178 447 623 164 268 1107 377 184 587 503 145 151 101 1101 284 194 1741 1057 112 535 439 284 146 1015 172 278 169 2514 219
internal_count=36643 6019 30624 5309 30101 27368 710 2733 949 523 4360 1632 1319 378 569 502 3673 1159 26799 1941 200 207 303 24858 234 687 362 1035 688 153 24170 266 200 178 447 623 164 268 1107 377 184 587 503 145 151 101 1101 284 194 1741 1057 112 535 439 284 146 1015 172 278 169 2514 219
cat_boundaries=0 35 68 73 108 112 140 174 208 241
cat_threshold=0 128 0 0 67108864 67108864 0 2 0 0 536871424 16416 0 64 0 4 0 9437184 2097152 268435456 16777216 4194368 4194304 268435456 0 36864 0 0 1 67108888 0 1090519042 0 268435456 272 128 0 8 2107392 0 2 2056 0 2 0 0 32768 131072 2 2129920 0 0 16392 134217728 1 0 8392704 0 0 2097152 2147483648 161 0 33554432 0 67108880 2189426688 128 16384 205684736 0 0 16896 0 0 524288 131072 8704 512 2147483648 33024 256 512 0 0 0 0 0 2097152 1 262144 2 0 4194304 2148532224 0 0 0 0 16777216 0 262144 0 1 0 131072 0 1 301989888 45080 69599240 274726980 0 0 335544320 0 0 0 0 0 0 0 2048 0 65536 2097152 2231369732 65536 287808 0 5242880 18 1073774592 0 327696 2415919360 8 268959744 2 8 2147483648 16 0 0 134234368 134217792 0 0 272646144 0 1024 524288 0 0 0 0 8196 0 512 0 0 2149580800 134218240 0 40 0 16384 48 0 2147483650 65 512 1024 4194304 0 134225920 0 536870912 268566592 512 1073762304 8192 0 138412032 0 0 16 0 268435456 270532608 0 0 131072 0 4 134217728 0 16 0 524288 0 131072 130 0 81920 0 134217728 17047552 4194308 4 0 0 0 0 0 0 524288 0 0 0 8 0 0 4194304 0 0 0 0 2097152 0 0 32768 129 0 65536 16384 0 0 8 0 131072
is_linear=0
shrinkage=0.03


Tree=2
num_leaves=63
num_cat=10
split_feature=44 45 9 44 0 15 0 9 47 47 49 14 9 0 54 17 14 22 9 44 2 21 26 52 19 47 1 48 8 20 47 14 49 52 2 44 47 1 50 46 2 9 9 47 2 21 13 13 55 20 46 25 54 0 13 1 15 47 17 14 25 51
split_gain=2740.97 116.435 87.8989 56.0208 30.4224 25.2979 39.3401 23.0371 19.5032 16.4693 15.5709 14.7021 11.9609 10.3997 14.2323 23.7514 9.96551 8.7253 7.96074 7.16609 6.79421 5.46496 5.08818 4.86061 4.68413 4.53704 4.44619 4.44555 4.31237 4.21684 4.15776 4.60718 4.27336 3.40336 4.01545 3.3911 3.35535 3.33783 3.2967 3.27694 3.40678 3.20405 3.07438 2.89715 3.86471 3.43212 3.74937 5.51332 3.78599 7.60133 2.6802 2.54761 2.5288 2.40865 2.38408 2.80877 2.33278 2.2742 2.18109 2.10089 2.05544 1.92849
threshold=1.0000000180025095e-35 1.0000000180025095e-35 0 3.5000000000000004 1 -0.24999999999999997 2 3 1.0000000180025095e-35 1.0000000180025095e-35 12.500000000000002 -0.24999999999999997 4 5 179.9821666666667 24.500000000000004 -0.5 35.207666666666675 6 1.5000000000000002 41.88235000000001 18.591166666666663 16.785000000000007 14.282233361180731 20.215500000000002 11.500000000000002 6.0614500000000007 1.0000000180025095e-35 34.340000000000011 52.162000000000006 1.5000000000000002 -0.24999999999999997 28.500000000000004 0.70028148569523052 38.801100000000012 31.500000000000004 3.5000000000000004 8.1440500000000018 30.381613830700875 2.5000000000000004 42.784300000000009 7 8 1.0000000180025095e-35 42.090700000000005 8.7445000000000022 6.5000000000000009 7.5000000000000009 16.054166666666671 49.528000000000006 1.5000000000000002 20.875000000000004 96.409791666666692 9 11.500000000000002 8.5449500000000018 -0.68301270189221952 15.500000000000002 20.500000000000004 0.68301270189221941 15.955000000000002 4.3827634780381617
decision_type=2 2 9 2 9 2 9 9 2 2 2 2 9 9 10 2 2 2 9 2 2 2 2 2 2 2 2 2 2 2 2 2 2 2 2 2 2 2 2 2 2 9 9 2 2 2 2 2 8 2 2 2 8 9 2 2 2 2 2 2 2 2
left_child=1 5 11 12 8 6 21 16 22 20 26 25 -4 14 41 -16 35 -18 28 24 27 -1 -3 58 57 -2 -8 54 -15 -10 31 -6 -33 34 -11 -5 -21 -34 -19 40 -12 -9 -20 45 60 -28 -47 48 -48 -50 -26 -22 -31 -38 55 -7 -32 -14 -13 -30 -45 -58
right_child=2 4 3 7 30 9 10 13 29 33 39 23 19 18 15 -17 17 38 42 36 51 -23 -24 -25 50 -27 43 -29 59 52 56 32 37 -35 -36 -37 53 -39 -40 -41 -42 -43 -44 44 -46 46 47 -49 49 -51 -52 -53 -54 -55 -56 -57 61 -59 -60 -61 -62 -63
leaf_value=0.020794415473937986 0 0 0.019565465519428251 0 0 0 0 0.058787619234816152 0 0 0 0 0 -0.00076239771426251019 0 0.068944515620004143 0 -0.0022342160826166117 0.030134047464129197 0 0 0 0 0 0 0 0 0 0.020794415473937986 0 0.0097827346547771366 0 0 0 0 0.096574229316175958 0.019565465519428251 -0.0001228949057183448 0 0 0 0.019058858355696935 0.067609430756092062 0 0 0 0 0 0 0 0 0 0 0 0 0 0 0 0 -0.0012900484526188495 0 0
leaf_weight=83 54 82 412 54 99 479 58 678 132 50 97 80 130 59 79 86 92 63 651 81 50 58 252 85 428 216 53 52 541 73 66 74 63 130 248 160 640 50 55 75 59 1234 23527 58 56 655 83 159 61 89 280 92 55 613 381 1587 95 134 101 91 57 208
leaf_count=83 54 82 412 54 99 479 58 678 132 50 97 80 130 59 79 86 92 63 651 81 50 58 252 85 428 216 53 52 541 73 66 74 63 130 248 160 640 50 55 75 59 1234 23527 58 56 655 83 159 61 89 280 92 55 613 381 1587 95 134 101 91 57 208
internal_value=-0.00177881 -0.0202863 0.00185874 0.00207402 -0.0121321 -0.0224214 -0.0194868 0.00248265 -0.0170662 -0.0240479 -0.0208089 -0.0100769 -0.00203311 0.00259156 0.000541926 -0.00790909 -0.00439631 -0.00914286 0.00276245 -0.00286788 -0.0249326 -0.00315894 -0.0221497 -0.0152707 -0.00483951 -0.00533333 -0.0221919 -0.0252953 -0.00042368 -0.0111923 -0.00728571 -0.0101119 -0.0128824 -0.0185888 -0.0203557 5.60749e-05 -0.00145277 -0.00921239 -0.0145424 -0.0137532 -0.0162308 0.00127406 0.00285365 -0.0225625 -0.0189298 -0.0231273 -0.0235043 -0.0211837 -0.0182446 -0.0154 -0.0035678 -0.0185493 -0.0073125 -0.00107023 -0.0254798 -0.0258819 -0.00529268 -0.00825 -0.0180497 0.000294304 -0.0157826 -0.00640594
internal_weight=36643 6019 30624 30088 1249 4770 1701 27370 594 3069 1560 536 2718 26946 2077 165 424 210 24869 2306 2641 141 334 266 972 270 1329 2499 691 260 655 286 187 428 298 214 1334 113 118 231 156 1912 24178 1271 171 1100 1047 392 233 150 708 142 128 1253 2447 2066 369 264 181 632 115 303
internal_count=36643 6019 30624 30088 1249 4770 1701 27370 594 3069 1560 536 2718 26946 2077 165 424 210 24869 2306 2641 141 334 266 972 270 1329 2499 691 260 655 286 187 428 298 214 1334 113 118 231 156 1912 24178 1271 171 1100 1047 392 233 150 708 142 128 1253 2447 2066 369 264 181 632 115 303
cat_boundaries=0 35 40 44 77 108 112 146 180 214 219
cat_threshold=0 136 0 0 67108864 67108864 0 2 0 0 536871424 16416 0 64 0 4 0 9437184 2097152 268435456 16777216 4194368 4194304 268435456 0 36864 0 0 1 67108888 4194304 1090519042 0 268435456 256 268451840 139104280 67108864 272662628 16385 268435456 4096 67108864 4194304 128 32768 0 10240 0 2 2048 0 1073741826 0 0 0 0 0 32768 0 0 16392 134217728 1 0 8388608 0 0 2097152 2149580800 129 0 35651584 0 75497472 2181038080 128 0 0 0 131072 0 16 2147483648 33024 0 512 0 20971520 536871040 16 0 6291456 1 270336 537133058 0 0 2147483650 0 8389120 0 4194304 16777224 0 0 2147483648 1 838860800 45080 69599240 274726980 2147483648 4 0 2097152 256 131072 8 0 4210752 0 1024 256 2097152 2 0 0 4 0 512 0 0 2097152 8192 34816 160 0 81920 33570864 0 0 88 0 0 4194304 0 134217728 0 536870912 268566592 512 20480 8192 0 138412032 0 0 16 0 268435456 270532608 134217728 0 0 0 68 134217728 0 16 0 0 0 131072 386 0 16384 0 134217728 270336 0 16 0 0 671105024 134217792 0 0 402653216 0 0 524288 33554560 0 0 0 8192 1 0 0 2097152 2147483648 135266816 0 1048584 0 32768 0 0 2147483650 1 134218240 1024 256 142737408 16908608 17 201592992 8272
is_linear=0
shrinkage=0.03


Tree=3
num_leaves=63
num_cat=10
split_feature=44 10 9 45 44 0 11 10 16 10 47 9 47 49 14 16 1 9 14 10 9 2 14 49 0 46 9 47 54 10 1 16 47 1 52 14 1 1 27 47 46 9 54 42 54 1 55 48 10 0 45 41 23 19 27 2 20 1 49 45 54 52
split_gain=2703.22 227.145 87.4832 80.9001 55.235 23.6754 22.4948 22.4941 21.7058 21.5162 16.5175 11.8519 12.4466 11.347 11.2924 10.3815 18.3004 10.0948 9.82027 8.66679 7.70484 6.57575 6.40846 14.5043 6.19626 5.19156 5.18415 4.86496 4.60979 4.35908 4.35251 3.94796 3.82462 3.78316 3.70098 3.33738 3.8157 3.27232 3.1 3.70502 3.04677 3.57176 3.02246 3.00067 2.98051 3.27252 2.73064 3.7366 2.69752 2.6251 2.46225 2.42733 2.73908 2.40335 8.44644 2.38444 2.31363 2.1253 2.91489 2.49872 2.56033 2.08672
threshold=1.0000000180025095e-35 1.0000000180025095e-35 0 1.0000000180025095e-35 3.5000000000000004 1 2 1.0000000180025095e-35 11.500000000000002 1.0000000180025095e-35 1.0000000180025095e-35 3 7.5000000000000009 6.5000000000000009 -0.24999999999999997 7.5000000000000009 14.104700000000001 4 1.0000000180025095e-35 1.0000000180025095e-35 5 38.359600000000007 -0.5 20.500000000000004 6 1.5000000000000002 7 17.500000000000004 13.842333333333334 1.0000000180025095e-35 9.7525000000000031 9.5000000000000018 3.5000000000000004 9.3360000000000021 14.282233361180731 0.25000000000000011 7.6361000000000008 6.2636500000000011 14.774166666666668 1.0000000180025095e-35 1.0000000180025095e-35 8 179.9821666666667 68.390000000000015 143.29883333333336 9.0036000000000005 21.831250000000004 1.5000000000000002 1.5000000000000002 9 2.5000000000000004 52.415000000000013 18.365000000000006 16.663500000000003 25.010833333333338 41.88235000000001 162.52500000000001 7.122300000000001 106.50000000000001 3.5000000000000004 69.180500000000009 8.9097885289642562
decision_type=2 2 9 2 2 9 9 2 2 2 2 9 2 2 2 2 2 9 2 2 9 2 2 2 9 2 9 2 10 2 2 2 2 2 2 2 2 2 2 2 2 9 10 2 10 2 10 2 2 9 2 2 2 2 2 2 2 2 2 2 10 2
left_child=1 3 7 10 9 18 19 14 13 11 15 -4 43 38 27 55 37 22 -3 28 29 -12 -8 -24 32 -14 42 -2 -6 35 -23 -25 -15 -10 -16 -19 -37 -17 -5 -40 -28 -42 -22 -13 45 -30 47 -20 50 -7 51 52 -11 54 -39 -1 -55 58 -26 60 -59 -27
right_child=2 5 4 8 6 49 17 -9 33 48 21 12 25 24 34 16 -18 20 46 -21 26 30 23 31 57 61 40 -29 44 -31 -32 -33 -34 -35 -36 36 -38 53 39 -41 41 -43 -44 -45 -46 -47 -48 -49 -50 -51 -52 -53 -54 56 -56 -57 -58 59 -60 -61 -62 -63
leaf_value=0 0 0 0.018978501553845402 0 -0.00057176575067090804 -0.0012289499545097352 0.047029235208411901 -0.00041796761809581156 0 0 0 0 0 0 0 0 0 0 0 0.063258091197661875 0.041017065197205063 0 0.019190104997478516 -0.0021671896001381136 0 0 0.014438703222813607 0 -0.0002287061758767484 0.045041824077803098 0 -0.00057176575067090804 0 0 0 -0.0020062836686252613 -0.0011455727767711631 0 0 0 0.027726918502700419 0.065581147833409306 -0.00066773022684084391 0 0 0.080357893457190605 0 0 0.019565465519428251 0.019477421081152219 0.018978501553845402 0.019583619044137 0 0 0 0 0 0 0 0 0 -1.1181009301742788e-10
leaf_weight=2393 53 56 313 71 106 105 210 144 50 54 64 187 445 51 142 92 52 250 51 166 615 572 122 60 82 277 436 131 147 279 51 51 62 128 66 56 67 53 69 72 523 24095 62 88 57 68 50 50 662 398 155 137 93 774 119 121 69 127 50 128 59 307
leaf_count=2393 53 56 313 71 106 105 210 144 50 54 64 187 445 51 142 92 52 250 51 166 615 572 122 60 82 277 436 131 147 279 51 51 62 128 66 56 67 53 69 72 523 24095 62 88 57 68 50 50 662 398 155 137 93 774 119 121 69 127 50 128 59 307
internal_value=-0.00178209 -0.0201617 0.00183033 -0.0222929 0.00204512 -0.00422535 0.00245086 -0.0100769 -0.0143551 -0.00203311 -0.0240206 -0.00423562 -0.00547032 -0.0121751 -0.0139898 -0.0248192 -0.0224702 0.00257296 -0.0124839 -0.00355235 0.00264877 -0.0197511 -0.00190066 -0.0053691 -0.00993381 -0.00399708 0.00273078 -0.00857609 -0.00612698 -0.00058006 -0.0206918 -0.0132162 -0.0165122 -0.0237978 -0.0187788 -0.00271046 -0.0067561 -0.0232873 -0.0180849 -0.0155106 0.00280131 0.00284645 0.000117904 -0.0111818 -0.00405882 -0.00244186 -0.0170662 -0.0142277 0.00120163 -0.000567251 -0.000621868 -0.00228169 -0.00495918 -0.0237783 -0.0205465 -0.0259021 -0.0244377 -0.00772368 -0.0110909 -0.00655414 -0.00877419 -0.00213699
internal_weight=36643 6019 30624 5309 30088 710 27370 536 949 2718 4360 1617 1304 771 392 3673 1159 26826 207 544 26383 687 443 233 559 1029 25731 184 378 652 623 111 113 178 208 373 123 1107 212 141 25054 24618 677 275 272 215 151 101 1101 503 439 284 147 1015 172 2514 843 446 132 314 186 584
internal_count=36643 6019 30624 5309 30088 710 27370 536 949 2718 4360 1617 1304 771 392 3673 1159 26826 207 544 26383 687 443 233 559 1029 25731 184 378 652 623 111 113 178 208 373 123 1107 212 141 25054 24618 677 275 272 215 151 101 1101 503 439 284 147 1015 172 2514 843 446 132 314 186 584
cat_boundaries=0 35 40 64 99 133 167 170 204 238 242
cat_threshold=0 136 0 0 67108864 67108864 0 2 0 0 536871424 16416 0 64 0 4 0 9437184 2097152 268435456 16777216 4194368 4194304 268435456 0 36864 0 0 1 67108888 4194304 1090519042 0 268435456 256 16384 205684736 0 0 16896 1409294856 144 288 8 0 0 0 0 0 0 524288 0 0 0 0 2164326400 64 268435456 1107387408 5242882 512 0 65536 24576 0 0 524288 131072 8704 512 2147483648 33024 256 512 0 0 0 0 0 2097152 1 262144 2 0 4194304 2148532224 0 0 0 0 16777216 0 262144 0 1 0 131072 0 1 132 134217732 0 8192 1 0 512 0 524288 0 1025 0 0 0 0 16640 0 0 0 2097156 0 134217728 0 557056 2097312 33554432 128 36 0 1 65552 33554432 132 16777216 0 32768 0 17408 256 2 0 16 4096 1024 0 256 32768 0 268435456 4194304 1 2097152 1073741824 0 35651584 0 0 8 65 0 0 34095104 8192 65536 8 16 131072 39845888 16384 688136 2097152 2147483648 0 8 2147483648 128 0 16384 0 4210752 402653184 0 0 8 2 0 268500992 4 0 512 0 0 2101264 536879104 0 524288 0 82432 67110928 0 0 0 8388608 0 67108864 0 16 0 0 813694976 134217792 0 0 268437536 0 0 67633152 33554432 0 0 0 8192 1 0 0 0 2147483648 134218240 0 1048584 0 0 0 32768 2147483650 16777281 134217728 1024 256 0 256 2097152 32800
is_linear=0
shrinkage=0.03


Tree=4
num_leaves=63
num_cat=11
split_feature=50 51 9 46 0 15 0 47 9 47 14 9 46 47 11 14 47 9 2 2 0 52 21 48 26 27 14 9 47 21 18 0 23 19 0 2 27 17 47 19 15 38 20 38 52 39 15 7 47 25 47 46 7 15 1 15 52 50 18 72 17 16
split_gain=2715.3 130.367 88.9353 38.409 34.3996 25.0392 39.164 19.8114 18.0823 17.8342 16.2134 13.5861 13.3273 8.88945 8.30728 8.61753 7.94265 6.82852 6.74594 6.35193 5.67845 5.61844 5.46496 5.02996 4.9909 4.5039 4.39798 4.31567 4.30849 4.22247 4.20538 4.19259 4.18354 4.10169 3.44906 3.42203 4.63615 3.385 3.00089 2.99254 2.86154 2.8415 2.78508 4.35436 2.68621 3.94125 3.42573 2.66404 2.61443 2.54761 2.50494 4.52301 2.48024 2.35735 2.7684 2.33874 2.29361 2.28839 2.28571 2.27603 5.52618 5.16223
threshold=1.0000000180025095e-35 1.0000000180025095e-35 0 2.5000000000000004 1 -0.24999999999999997 2 1.0000000180025095e-35 3 1.0000000180025095e-35 -0.24999999999999997 4 2.5000000000000004 17.500000000000004 5 0.25000000000000011 1.0000000180025095e-35 6 41.88235000000001 43.154500000000006 7 14.282233361180731 18.591166666666663 1.0000000180025095e-35 16.73833333333334 14.947083333333335 -0.5 8 13.500000000000002 102.68250000000002 14.962500000000002 9 30.355000000000004 46.545500000000011 10 42.046500000000002 16.655833333333337 35.500000000000007 4.5000000000000009 6.400500000000001 -0.68301270189221952 51.625000000000007 126.02550000000001 78.830000000000013 2.2761812655429683 48.905000000000008 -0.24999999999999997 30.853000000000005 7.5000000000000009 20.875000000000004 1.5000000000000002 4.5000000000000009 28.970500000000005 0.93301270189221952 8.5449500000000018 -0.68301270189221952 13.164374029866726 18.106978845140411 11.939500000000001 1.0000000180025095e-35 24.500000000000004 10.500000000000002
decision_type=2 2 9 2 9 2 9 2 9 2 2 9 2 2 9 2 2 9 2 2 9 2 2 2 2 2 2 9 2 2 2 9 2 2 9 2 2 2 2 2 2 2 2 2 2 2 2 2 2 2 2 2 2 2 2 2 2 2 2 2 2 2
left_child=1 5 10 11 7 6 22 24 37 18 28 29 16 34 15 55 30 26 23 -18 50 41 -1 53 -3 -9 -16 -19 -2 56 32 -15 -8 -27 -13 36 -11 47 -29 -17 -22 -12 -32 -44 45 -42 -46 58 -36 -20 51 -6 -38 54 -7 -10 -4 -30 -5 -40 61 -61
right_child=2 4 3 8 20 9 12 25 14 35 21 13 -14 31 17 39 19 27 49 -21 40 -23 -24 -25 -26 33 -28 38 57 -31 42 -33 -34 -35 48 -37 52 -39 59 -41 44 -43 43 -45 46 -47 -48 -49 -50 -51 -52 -53 -54 -55 -56 -57 -58 -59 -60 60 -62 -63
leaf_value=0.019703124975170298 0 0 0 -0.0018243633171663126 0 0 0 0 -0.001900407952523781 0 0 0 0 0 0.039893693073514758 -0.0018159138229119271 0 0.012471268787811329 0 0 0 0 0 0 0 0 -0.0019460951585665031 0 0 0 0 0.01899611047281289 0 0 0 0 0 0.05162608914921013 0.060754407062957816 -0.0020550510502210374 0 0 0 0 0 0 0 -0.0019460951585665031 0 0 0 0 0 0 0 0.039123720635047973 -0.00058696396558284754 0.020794415473937986 -0.0021021739121339701 0.041105172258475792 0.069401840898317801 -0.0019674344350022791
leaf_weight=83 64 78 249 50 63 479 62 61 71 127 107 305 85 536 286 51 260 656 50 62 123 80 58 52 218 81 351 81 129 133 873 1508 52 96 216 197 53 88 24022 89 50 74 52 114 61 54 197 203 251 92 98 69 51 381 1587 322 50 82 90 62 345 73
leaf_count=83 64 78 249 50 63 479 62 61 71 127 107 305 85 536 286 51 260 656 50 62 123 80 58 52 218 81 351 81 129 133 873 1508 52 96 216 197 53 88 24022 89 50 74 52 114 61 54 197 203 251 92 98 69 51 381 1587 322 50 82 90 62 345 73
internal_value=-0.00169121 -0.0201118 0.00192927 0.00214579 -0.0114836 -0.0223711 -0.0194515 -0.017239 0.00251937 -0.0239892 -0.0100769 -0.000934729 -0.0207707 -0.000163482 0.00261846 -0.0010884 -0.0215695 0.0026952 -0.0249099 -0.0174037 -0.00684828 -0.0156207 -0.00315894 -0.0252713 -0.0227432 -0.0111176 -0.000384853 0.00277306 -0.00518182 -0.00582353 -0.0227329 0.00087182 -0.0172632 -0.00869491 -0.00290674 -0.0183084 -0.0158312 -0.00353061 0.00283776 -0.0075 -0.00475758 -0.018547 -0.023333 -0.0197711 -0.00619889 -0.0102692 -0.00455814 -0.00495918 -0.00448428 -0.0185493 -0.010875 -0.0140455 -0.0111346 -0.0254675 -0.0258674 0.00116794 -0.00793645 -0.00311374 -0.00814286 0.00285797 0.0008125 -0.00433333
internal_weight=36643 6019 30624 30088 1249 4770 1701 534 26840 3069 536 3248 1560 2816 26409 533 1475 25876 2641 322 715 261 141 2499 296 238 637 25239 275 432 1153 2044 114 177 772 428 231 431 24583 140 485 181 1039 166 362 104 258 343 467 142 230 132 104 2447 2066 393 299 211 140 24502 480 135
internal_count=36643 6019 30624 30088 1249 4770 1701 534 26840 3069 536 3248 1560 2816 26409 533 1475 25876 2641 322 715 261 141 2499 296 238 637 25239 275 432 1153 2044 114 177 772 428 231 431 24583 140 485 181 1039 166 362 104 258 343 467 142 230 132 104 2447 2066 393 299 211 140 24502 480 135
cat_boundaries=0 35 40 44 76 111 139 173 178 209 214 219
cat_threshold=0 136 0 0 67108864 67108864 0 2 0 0 536871424 16416 0 64 0 4 0 9437184 2097152 268435456 16777216 4194368 4194304 268435456 0 36864 0 0 1 67108888 0 1124073474 0 268435456 256 268451840 139104264 67108864 272629860 1 268435456 4096 67108864 4194304 0 0 0 2105472 0 131074 2048 16 268468226 0 0 33024 131072 2 270532608 0 0 0 0 16 0 0 0 32768 2097408 134217728 129 1107296256 8192 1 8 16 0 0 256 256 8388608 2097409 301989888 0 1048576 0 1024 0 0 32 0 0 71303168 0 0 1073741824 67108865 2097152 0 0 0 0 32 1 786432 0 4194384 0 1024 2049 18 2105600 8 0 0 0 0 0 0 0 0 67108864 4194304 67584 2097216 0 0 1024 2097153 68158528 65808 0 0 16 1024 8 268959744 3072 8 4194304 16 0 0 268435720 0 0 0 4200448 0 0 0 0 0 0 65536 0 2097152 512 0 0 2149580800 139264 0 0 1 81920 67633200 262144 2 17 134217728 0 4194560 131072 83894320 2097152 32768 16960 2147483648 0 2097160 1024 0 134217792 272629760 262144 16480 1024 65536 67108864 8 0 4 0 8196 1 131072 34 2097152 1048592 0 0 1048648 0 0 0 0 2147483652 16777216 671105088 151035904 2359448 4456708 1 134217728 256 262145 528544 8
is_linear=0
shrinkage=0.03


Tree=5
num_leaves=63
num_cat=9
split_feature=44 10 9 45 44 0 9 72 10 47 10 15 1 14 9 14 49 10 9 49 13 14 14 10 2 0 52 44 55 9 9 10 18 25 49 51 2 13 10 17 51 9 49 1 13 47 55 51 52 19 25 47 48 20 42 41 20 2 13 40 55 13
split_gain=2730.41 233.218 88.4935 83.9577 46.9413 28.134 23.1579 21.4641 16.9328 16.1034 14.0709 10.8897 20.0535 9.94353 9.84109 9.79731 9.65787 8.66478 8.6533 8.13889 8.10926 7.47564 6.41776 6.34278 5.59639 5.17262 4.8563 4.78353 4.72692 4.66227 3.4633 3.29683 3.26976 3.56836 3.16396 3.707 5.50277 3.08842 4.3909 3.0784 3.24 3.06554 3.48186 3.07643 2.99549 2.87392 2.72425 2.68507 2.67904 3.04931 2.67647 2.66885 2.61678 2.40251 2.35464 3.35843 2.1773 2.66667 2.1041 2.09749 4.36707 3.58187
threshold=1.0000000180025095e-35 1.0000000180025095e-35 0 1.0000000180025095e-35 2.5000000000000004 1 2 1.0000000180025095e-35 1.0000000180025095e-35 1.0000000180025095e-35 1.0000000180025095e-35 -0.24999999999999997 14.104700000000001 -0.24999999999999997 3 -0.5 3.5000000000000004 1.0000000180025095e-35 4 18.500000000000004 5.5000000000000009 -0.5 -0.5 1.0000000180025095e-35 38.57330000000001 5 11.690423679110852 26.500000000000004 22.578750000000003 6 7 1.0000000180025095e-35 27.815500000000004 25.145000000000003 34.500000000000007 34.483320046261476 41.447150000000001 7.5000000000000009 1.0000000180025095e-35 30.500000000000004 19.378917695931165 8 2.5000000000000004 7.7420500000000017 4.5000000000000009 82.500000000000014 17.931250000000002 13.544561909840953 1.0016722408026759 44.849500000000006 20.455000000000002 10.500000000000002 6.5000000000000009 19.153000000000002 54.470833333333339 67.14166666666668 54.885500000000008 39.368600000000008 1.5000000000000002 48.705000000000005 17.171250000000004 6.5000000000000009
decision_type=2 2 9 2 2 9 9 2 2 2 2 2 2 2 9 2 2 2 9 2 2 2 2 2 2 9 2 2 10 9 9 2 2 2 2 2 2 2 2 2 2 9 2 2 2 2 10 2 2 2 2 2 2 2 2 2 2 2 2 2 8 2
left_child=1 3 10 9 8 13 15 16 19 11 21 12 32 -3 22 -6 52 20 31 26 -17 27 -8 39 -11 28 51 -2 44 37 -31 56 33 -1 -27 36 50 38 47 40 -24 -32 43 -43 -18 -26 -15 -20 -23 -50 -36 -4 -5 -35 -21 -56 57 -16 -7 -34 -61 -62
right_child=2 5 4 7 6 58 14 -9 -10 24 -12 -13 -14 46 18 17 25 -19 29 54 -22 48 23 -25 45 34 -28 -29 -30 30 41 -33 59 53 35 -37 -38 -39 -40 -41 -42 42 -44 -45 -46 -47 -48 -49 49 -51 -52 -53 -54 -55 55 -57 -58 -59 -60 60 61 -63
leaf_value=0 -0.00077627014592077483 0 0 0 0.018351695656746915 -0.0018095856937650969 0.030642962321355431 0 0.017173478260924156 0 -0.00059257846174872093 0 0 0 -0.002967494576866743 -0.0018022777065870598 0 0.076918062877804547 -0.00023787347894006306 0 -0.0023436028896273464 0 -0.0019549726497443314 0.037138690124655614 0 0 0 -0.00062383246421813957 0 0.012880798611447567 0.023490559541078978 0.03884570062791913 0 0 0 3.6868471715503437e-06 0 0.034050355027058395 0.034702859735891475 -0.0022187280153645591 -0.0037639001925098524 -0.0045524573417205323 0.059977792525672424 0.018982023351335833 0 0 0 -0.0039265836377043398 0 -0.001815771026612432 0 0 0 0 -0.00174898375772994 0 0.0020809696097981484 -0.0018224850062510652 3.6868498635292053e-05 0 0 0
leaf_weight=69 127 52 152 87 205 51 216 142 825 80 125 2523 58 56 50 96 67 59 56 382 104 108 50 68 515 169 231 55 53 595 794 294 439 71 79 52 98 294 96 54 50 51 24232 262 90 78 102 89 66 64 51 148 80 64 199 119 163 150 451 294 114 57
leaf_count=69 127 52 152 87 205 51 216 142 825 80 125 2523 58 56 50 96 67 59 56 382 104 108 50 68 515 169 231 55 53 595 794 294 439 71 79 52 98 294 96 54 50 51 24232 262 90 78 102 89 66 64 51 148 80 64 199 119 163 150 451 294 114 57
internal_value=-0.0017318 -0.0201629 0.00190398 -0.0223171 0.00212175 -0.00403652 0.00244341 -0.0143244 -0.00225292 -0.0240908 -0.00997297 -0.0248693 -0.0224717 -0.0129545 0.00255502 -0.0041519 -0.0124722 -0.00811969 0.00262743 -0.00448172 -0.0111 -0.0127857 -0.00188839 -0.00551351 -0.0198232 -0.0108391 -0.00728249 -0.00820879 -0.0151364 0.00271222 0.00276989 -0.000778111 -0.0233718 -0.0199412 -0.00830719 -0.00653571 -0.00818421 -8.25687e-05 -0.00260166 -0.00888312 -0.012 0.00282366 0.00288393 -0.000258786 -0.013242 -0.020828 -0.0173165 -0.00589655 -0.0162857 -0.0133846 -0.0122308 -0.0098 -0.0189162 -0.0227778 -0.00235714 -0.00426415 -0.00270248 -0.0048 -4.68749e-05 -0.024146 -0.0227419 -0.0189298
internal_weight=36671 6042 30629 5330 30084 712 28028 968 2056 4362 545 3689 1166 210 27564 464 826 259 27126 1231 200 420 438 222 673 659 531 182 210 26469 25934 657 1108 204 449 280 228 535 241 154 100 25339 24545 313 157 593 158 145 238 130 130 300 167 135 700 318 363 200 502 904 465 171
internal_count=36671 6042 30629 5330 30084 712 28028 968 2056 4362 545 3689 1166 210 27564 464 826 259 27126 1231 200 420 438 222 673 659 531 182 210 26469 25934 657 1108 204 449 280 228 535 241 154 100 25339 24545 313 157 593 158 145 238 130 130 300 167 135 700 318 363 200 502 904 465 171
cat_boundaries=0 35 40 74 108 142 146 180 214 248
cat_threshold=16777216 128 0 2048 67108864 67108865 0 2 0 0 536871424 134234112 0 64 524288 4 256 8388608 0 268435457 0 4194304 4194304 268435456 0 2147520512 0 0 1 24 0 1124073472 0 268435456 256 16384 205684736 0 0 16896 132 0 8 2097152 0 131072 8 0 1073741826 0 0 32768 131072 0 2097152 1024 0 1048584 0 8192 0 0 0 0 2621472 0 129 16416 33554432 67125248 16 2147483648 0 67108864 0 557056 0 0 0 0 1073741824 0 561152 0 1024 0 0 2 0 0 67108865 0 134217728 0 33554432 9437184 671088640 0 129 0 0 4 262144 0 201326592 530 0 4227072 4194304 4 0 2147492864 256 0 0 16 268437536 0 0 0 2097160 0 0 0 0 2113536 0 32 64 0 0 32768 256 2686976 32 0 8192 2147483651 16777288 0 1152 16777216 16384 134381576 0 32804 0 0 0 0 8388608 64 0 0 4210752 268436480 1 537395456 557056 0 0 4194304 4 0 512 1073741824 0 2097152 8192 0 64 0 16842752 0 17301504 128 0 0 0 32 0 0 0 536870912 268591616 0 270532608 0 4 4672 4194304 32 33554432 67108864 8 65536 0 268959744 0 0 2097152 0 0 8 1048576 8390656 512 524288 0 65536 0 8388864 0 256 2147483648 0 0 16384 671088640 134221824 0 0 134217728 0 0 65536 0 2147483648 0 0 8224 1 1073872896 2 16777216 16 1049088 0 4104 134217728 16384 67108880 268468224 0 1 134217728 131072 33554432
is_linear=0
shrinkage=0.03


Tree=6
num_leaves=63
num_cat=10
split_feature=44 10 45 9 44 0 14 16 9 47 10 0 16 17 1 49 16 1 14 9 14 13 49 9 2 0 14 10 1 49 10 13 9 17 52 51 1 18 25 26 10 16 47 55 1 9 13 49 19 20 27 13 48 40 55 13 22 0 14 55 44 57
split_gain=2736.96 233.218 83.9577 60.7421 42.409 28.134 20.6806 20.6751 18.414 16.1034 12.589 12.0325 12.1225 22.7848 27.0497 11.091 10.8897 20.0535 10.0335 10.0151 9.94353 9.31264 9.18723 6.13814 5.59639 5.0539 4.55235 4.49484 3.89891 4.06603 3.85742 4.31271 3.57855 3.55258 3.50863 3.40681 3.40559 3.26976 3.56836 3.11141 3.0421 3.64999 2.87392 2.72425 2.70297 2.60602 2.50645 2.42621 2.40614 2.40251 2.10616 2.1041 2.09989 2.09749 4.36707 3.58187 2.09396 2.07739 2.15142 1.87212 1.8338 1.83972
threshold=1.0000000180025095e-35 1.0000000180025095e-35 1.0000000180025095e-35 0 2.5000000000000004 1 -0.24999999999999997 11.500000000000002 2 1.0000000180025095e-35 1.5000000000000002 3 10.500000000000002 24.500000000000004 11.847650000000002 3.5000000000000004 7.5000000000000009 14.104700000000001 -0.5 4 -0.24999999999999997 5.5000000000000009 18.500000000000004 5 38.57330000000001 6 -0.24999999999999997 1.0000000180025095e-35 6.6162500000000009 34.500000000000007 1.0000000180025095e-35 6.5000000000000009 7 28.500000000000004 1.0016722408026759 2.9292569271183981 11.847650000000002 27.815500000000004 25.145000000000003 24.935000000000006 1.0000000180025095e-35 7.5000000000000009 82.500000000000014 17.931250000000002 9.3132000000000019 8 4.5000000000000009 2.5000000000000004 36.89050000000001 19.153000000000002 14.947083333333335 1.5000000000000002 104.50000000000001 48.705000000000005 17.171250000000004 6.5000000000000009 49.817750000000004 9 0.93301270189221952 19.911250000000006 1.5000000000000002 0.33874999999999927
decision_type=2 2 2 9 2 9 2 2 9 2 2 9 2 2 2 2 2 2 2 9 2 2 2 9 2 9 2 2 2 2 2 2 9 2 2 2 2 2 2 2 2 2 2 10 2 9 2 2 2 2 2 2 2 2 8 2 2 9 2 8 2 10
left_child=1 2 9 6 10 20 -2 15 18 16 22 12 45 14 -14 50 -1 37 -6 30 -3 -20 35 26 -11 46 -21 34 -27 59 31 -13 -25 -23 -8 44 -9 38 -18 -31 41 52 -26 -22 47 -10 -17 -5 -36 -40 -4 -7 -28 -39 -55 56 -56 -24 -59 -30 61 -37
right_child=3 5 7 4 8 51 27 36 11 24 -12 19 13 -15 -16 25 17 -19 21 23 43 33 57 32 42 28 40 -29 29 39 -32 -33 -34 -35 48 60 -38 53 49 -41 -42 -43 -44 -45 -46 -47 -48 -49 -50 -51 -52 -53 -54 54 55 -57 -58 58 -60 -61 -62 -63
leaf_value=0 -0.00098163858027018039 0 0 0 0.030415524332050838 -0.0017552981229521441 -0.00056302212890808423 0 -0.00051635733662730682 0 0.018463297206017682 -0.0021697377386594016 0.013051280227703578 0.055342241973941282 -0.0023884162932581825 0 0 0 0 0.046323640314348088 0 -0.0022321026760439631 0.016071310078710252 0.017065048337037605 0 0 -0.0029978605604598909 -0.0015635521855482369 0 0 0.034925075256167469 -0.0014252060438767712 0.058154247842769263 -0.0022649768396751421 -0.0017617026954148203 0 0 0 0 3.5762417564038336e-06 0.016787305718093035 -0.0048796142833884169 0 0 0 0.037990035413614183 0 -0.00055894751423185758 -0.0017668195502011349 0 0 3.5762443676233286e-05 0.031405077878462306 0 0 0 0 -0.00045486028377705645 -0.0017701626988214057 0 -2.7617124839507696e-10 -0.00056988331418438671
leaf_weight=2523 291 52 69 56 193 51 90 61 316 80 481 107 65 173 89 62 69 58 108 319 56 74 151 679 515 114 59 53 97 165 225 195 24106 54 64 204 109 439 71 62 120 68 78 102 95 961 55 83 63 64 104 451 66 294 50 57 64 667 82 70 189 83
leaf_count=2523 291 52 69 56 193 51 90 61 316 80 481 107 65 173 89 62 69 58 108 319 56 74 151 679 515 114 59 53 97 165 225 195 24106 54 64 204 109 439 71 62 120 68 78 102 95 961 55 83 63 64 104 451 66 294 50 57 64 667 82 70 189 83
internal_value=-0.00170972 -0.0201629 -0.0223171 0.00193043 0.00211331 -0.00403652 -0.00777058 -0.0143244 0.00242203 -0.0240908 -0.00200717 0.00251774 -1.11523e-05 -0.00516514 -0.0135584 -0.0123008 -0.0248693 -0.0224717 -0.00369704 0.00267404 -0.0129545 -0.0079322 -0.0032795 0.00275931 -0.0198232 -0.01044 -0.00017757 -0.0138889 -0.0085251 -0.00727919 -0.00141341 -0.00365563 0.00283424 -0.0134062 -0.0158018 -0.00583099 -0.0238235 -0.0233718 -0.0199412 -0.0046652 -0.0027508 -0.0050829 -0.020828 -0.0173165 -0.00879487 0.00130854 -0.0166063 -0.0114604 -0.0125906 -0.0227778 -0.0190231 -4.68749e-05 -0.00204 -0.024146 -0.0227419 -0.0189298 -0.022 -0.00126667 -0.00190119 -0.0108323 -0.00437395 -0.00588502
internal_weight=36671 6042 5330 30629 30068 712 561 968 27977 4362 2091 27548 1604 327 154 798 3689 1166 429 25944 210 236 1610 25417 673 625 632 270 508 394 527 302 24785 128 217 710 170 1108 204 227 313 193 593 158 234 1277 117 139 127 135 173 502 125 904 465 171 114 900 749 167 476 287
internal_count=36671 6042 5330 30629 30068 712 561 968 27977 4362 2091 27548 1604 327 154 798 3689 1166 429 25944 210 236 1610 25417 673 625 632 270 508 394 527 302 24785 128 217 710 170 1108 204 227 313 193 593 158 234 1277 117 139 127 135 173 502 125 904 465 171 114 900 749 167 476 287
cat_boundaries=0 35 40 74 78 112 146 150 184 217 222
cat_threshold=16777216 524288 0 2048 67108864 67108867 0 0 2 0 512 16384 0 0 0 4 256 8 2097152 268435457 0 4194304 4194304 0 0 2147520512 1 0 1 8 4194304 3271557120 0 2048 272 16384 205684736 0 0 16896 132 134217728 8 2097152 0 131072 2056 0 0 0 0 32768 131072 0 2621440 1024 0 8388608 134217728 8192 0 0 0 0 2621472 33554432 128 16384 33554432 16384 16 0 0 335544320 268435456 268480536 69468160 272629824 4194304 4 0 8192 0 0 0 18 557056 0 1024 0 2097160 2 0 0 67108864 16384 0 32 33554432 1048576 134217728 0 129 0 0 32 262144 2147483649 8 528 1024 4194304 0 0 0 0 256 64 0 0 272646240 268436480 0 524544 32768 0 0 4194304 4 0 512 0 0 2097152 8192 32768 320 0 16842752 0 17301504 130 0 134217728 0 32 16384 163848 0 4 0 0 0 0 536895488 4096 270532608 0 4 64 4194304 0 33554432 0 8 0 0 524289 131072 2 18874368 0 0 0 1052680 8388608 0 67633168 268435456 65536 0 258 0 33554688 0 32768 0 2147501056 512 0 0 0 4096 0 0 0 0 2147483712 0 65536 1 2097152 0 16 0 8388608 0 0 0 65536 32 0 8192 0 16777216 0 128 4 528 0 134217728 16
is_linear=0
shrinkage=0.03


Tree=7
num_leaves=63
num_cat=7
split_feature=44 10 45 9 44 72 47 9 70 15 1 14 49 11 63 10 9 14 52 12 9 10 2 44 49 16 54 70 13 9 2 72 10 13 54 18 25 44 55 2 4 11 47 49 48 13 10 19 52 55 41 3 2 20 18 26 51 49 40 55 13 54
split_gain=2773.24 233.218 83.9577 38.6459 26.3058 21.4641 16.1034 14.1066 10.9915 10.8897 20.0535 10.3346 9.65787 9.42492 8.11934 7.40771 8.34364 6.82625 7.88317 7.36143 6.3043 6.26977 5.59639 5.34879 5.2224 5.10413 4.28147 4.61251 4.21099 3.80866 3.69615 3.53455 3.51112 3.73331 4.35114 3.26976 3.56836 3.15635 3.14217 3.55943 2.97076 2.89785 2.87392 2.71592 2.61678 2.4203 2.58582 3.42432 3.01829 2.41071 4.06764 2.40733 2.96643 2.40251 2.33218 2.28496 2.22236 2.12516 2.09749 4.36707 3.58187 2.4374
threshold=1.0000000180025095e-35 1.0000000180025095e-35 1.0000000180025095e-35 0 4.5000000000000009 1.0000000180025095e-35 1.0000000180025095e-35 1 1.0000000180025095e-35 -0.24999999999999997 14.104700000000001 -0.5 3.5000000000000004 2 1.0000000180025095e-35 1.5000000000000002 3 -0.5 4.26856959305288 2023.5000000000002 4 1.5000000000000002 38.57330000000001 64.500000000000014 18.500000000000004 10.500000000000002 146.3846666666667 1.0000000180025095e-35 2.5000000000000004 5 38.72975000000001 1.0000000180025095e-35 1.0000000180025095e-35 7.5000000000000009 48.358250000000005 27.815500000000004 25.145000000000003 39.500000000000007 27.021666666666668 43.694400000000009 27.125000000000004 6 82.500000000000014 1.5000000000000002 6.5000000000000009 7.5000000000000009 1.0000000180025095e-35 23.867500000000003 17.895113589270245 19.950000000000006 45.383333333333347 2209.9000000000001 42.784300000000009 19.153000000000002 43.557000000000009 24.015000000000004 5.1964124983926974 46.500000000000007 48.705000000000005 17.171250000000004 6.5000000000000009 85.751250000000013
decision_type=2 2 2 9 2 2 2 9 2 2 2 2 2 9 2 2 9 2 2 2 9 2 2 2 2 2 10 2 2 9 2 2 2 2 10 2 2 2 10 2 2 9 2 2 2 2 2 2 2 8 2 2 2 2 2 2 2 2 2 8 2 8
left_child=1 2 6 11 15 12 9 17 14 10 35 37 44 25 28 16 -5 -6 -19 -20 45 23 -8 54 49 -9 27 30 -3 32 57 -27 33 34 -22 36 -1 40 39 51 -2 -31 -24 -43 -4 46 47 -15 -49 50 -18 52 -32 -38 -13 -17 -52 -14 -37 -60 61 -61
right_child=3 8 5 4 7 -7 22 13 -10 -11 -12 21 26 20 -16 55 24 18 19 -21 29 -23 42 -25 -26 31 -28 -29 -30 41 38 -33 -34 -35 -36 58 53 -39 -40 -41 -42 43 -44 -45 -46 -47 -48 48 -50 -51 56 -53 -54 -55 -56 -57 -58 -59 59 60 -62 -63
leaf_value=0 -0.00051064728792300285 -0.0010851349413729258 0 5.2737261785728661e-05 0.045186756947996648 0 0 5.2737261785728661e-05 0 0 0 -0.0016997053567294142 0 0.012314077649461382 0 0.017909398289837151 -0.0017182458397369685 0.024331186413969825 -0.0024743959145028804 -0.0017679534613648108 -0.0021148280900746726 0.0067415355372920796 0 -0.0017526281585061626 -0.00050266326169859431 -0.0038480786831089609 0 0 0 0.033933935063688844 0 -0.0017502757689746812 0.04978321070349976 0.037238984318624525 -0.0086790680266160616 0 0 0.085856163431281246 -1.0728717435558733e-08 0 -0.0023368727389067338 -0.002279045062055363 0 0.063258738112824661 0 0.041706676878106176 0.067900659120811044 -0.0015963804466243557 -0.0031174421298712117 0 -0.00052189272396204606 0 0 0 -0.0016926779690952006 -0.0028266343293438427 -0.00057842362037676862 0 0 0 0 0
leaf_weight=69 84 93 87 420 209 142 80 423 86 2523 58 96 74 89 65 807 66 74 93 52 85 53 515 53 1346 50 50 52 468 736 193 60 290 141 63 439 71 122 50 60 59 171 78 23492 80 309 85 51 52 287 186 57 58 64 88 61 376 65 294 58 57 56
leaf_count=69 84 93 87 420 209 142 80 423 86 2523 58 96 74 89 65 807 66 74 93 52 85 53 515 53 1346 50 50 52 468 736 193 60 290 141 63 439 71 122 50 60 59 171 78 23492 80 309 85 51 52 287 186 57 58 64 88 61 376 65 294 58 57 56
internal_value=-0.00158782 -0.0201629 -0.0223171 0.00207637 0.00222118 -0.0143244 -0.0240908 0.00254647 -0.00403652 -0.0248693 -0.0224717 -0.00570796 -0.0124722 0.00263458 -0.00265495 -0.000203719 -0.000983588 -0.00282192 -0.00658904 -0.0106552 0.00271729 -0.00972414 -0.0198232 -0.0118101 -0.00170277 -0.00130939 -0.0108391 -0.011532 -0.00149198 0.0027899 -0.0107343 -0.00709091 0.000351443 -0.0019827 -0.00531081 -0.0233718 -0.0199412 -0.0015283 -0.0121435 -0.0111848 -0.00455245 0.0028476 -0.020828 0.00290622 -0.0189162 -0.000372483 -0.00241516 -0.00434375 -0.00806796 -0.00345902 -0.0045 -0.012487 -0.0112231 -0.0227778 -0.0093913 0.00220507 -0.0036726 -0.0064964 -0.024146 -0.0227419 -0.0189298 -0.022
internal_weight=36671 6042 5330 30629 30074 968 4362 26525 712 3689 1166 555 826 26097 626 3549 2681 428 219 145 25564 290 673 237 2261 533 659 609 561 24978 557 110 579 289 148 1108 204 265 418 368 143 24399 593 23663 167 586 277 192 103 915 628 308 251 135 184 868 562 139 904 465 171 114
internal_count=36671 6042 5330 30629 30074 968 4362 26525 712 3689 1166 555 826 26097 626 3549 2681 428 219 145 25564 290 673 237 2261 533 659 609 561 24978 557 110 579 289 148 1108 204 265 418 368 143 24399 593 23663 167 586 277 192 103 915 628 308 251 135 184 868 562 139 904 465 171 114
cat_boundaries=0 34 68 92 124 157 189 217
cat_threshold=0 128 256 2048 0 2 8 0 2 0 0 32800 0 0 524288 0 256 9437192 2097152 1 0 4 0 0 2097152 2147483648 1 0 33554432 67125256 16 2181038080 0 268435457 132 134217728 8 0 67108864 0 2048 2 524288 0 0 0 131072 8194 0 1024 1 0 134234112 4 33554432 0 536870912 0 524449 33554432 640 16384 0 0 0 8389120 1024 71303168 25405088 67109002 2080 0 0 0 0 0 0 0 0 0 0 2097152 0 65536 262208 0 4203685 6146 1073741824 0 0 2147483648 0 0 0 131072 16777216 67108864 2147483648 33026 0 524800 66048 16777216 536870912 0 0 2097152 1 262144 536870914 0 0 2 0 769 0 36864 0 0 129 2147483664 67108864 1140850688 0 0 0 2147491840 256 64 0 0 16480 268435456 1 256 0 67108864 0 268451840 4 2113536 512 0 0 0 134217728 0 64 2162688 65536 32 0 65539 8388608 0 128 0 4 0 536871936 537001984 0 16896 0 272635904 134218816 4194304 0 33554440 0 0 65536 0 269090816 0 0 0 0 8192 0 1048576 8388608 0 526336 0 128 64 16 66 65536 4194368 0 0 0 0 0 131072 0 2048 268435456 2099200 0 4 0 66560 2147549184 68419648 768 262144 68158208 65536 131072 2147483648 524288 0 4096
is_linear=0
shrinkage=0.03


Tree=8
num_leaves=63
num_cat=13
split_feature=44 10 45 9 72 0 44 47 49 9 15 1 14 9 9 14 55 17 49 13 0 54 10 44 14 9 21 70 10 21 20 0 9 9 1 54 18 25 0 49 51 12 48 55 20 24 9 13 10 20 55 10 7 21 17 20 17 9 10 13 4 23
split_gain=2731.58 243.791 101.875 37.2244 25.5973 20.8793 17.5244 16.1034 13.4558 12.9569 10.8897 20.0535 9.41055 9.00153 7.74591 7.20143 7.08758 7.04686 10.312 7.4592 4.61753 5.2456 4.39653 6.40745 4.34551 4.28258 4.15902 4.07303 3.98271 3.96731 4.01748 3.73925 4.34098 3.51472 3.43236 3.4785 3.26976 3.56836 2.89274 2.88897 3.98176 2.7683 2.61678 2.56016 2.40251 2.30334 2.2987 2.18434 2.1164 2.0837 2.2164 2.00425 2.07651 2.6342 1.89424 1.82402 1.72243 1.70222 2.65906 2.96321 1.68862 3.63957
threshold=1.0000000180025095e-35 1.0000000180025095e-35 1.0000000180025095e-35 0 1.0000000180025095e-35 1 7.5000000000000009 1.0000000180025095e-35 3.5000000000000004 2 -0.24999999999999997 14.104700000000001 -0.24999999999999997 3 4 -0.24999999999999997 27.021666666666668 31.500000000000004 58.500000000000007 7.5000000000000009 5 179.9821666666667 1.5000000000000002 14.500000000000002 -0.5 6 32.975500000000011 1.0000000180025095e-35 1.0000000180025095e-35 40.037500000000009 98.472500000000011 7 8 9 9.3715500000000009 165.7021666666667 27.815500000000004 25.145000000000003 10 34.500000000000007 4.3827634780381617 2023.5000000000002 6.5000000000000009 20.232916666666672 19.153000000000002 23.635000000000002 11 9.5000000000000018 1.5000000000000002 130.08800000000005 16.771250000000006 1.0000000180025095e-35 106.04800000000002 45.322166666666682 35.500000000000007 21.164500000000004 28.500000000000004 12 1.0000000180025095e-35 7.5000000000000009 27.235000000000003 26.785000000000004
decision_type=2 2 2 9 2 9 2 2 2 9 2 2 2 9 9 2 10 2 2 2 9 10 2 2 2 9 2 2 2 2 2 9 9 9 2 8 2 2 9 2 2 2 2 10 2 2 9 2 2 2 8 2 2 2 2 2 2 9 2 2 2 2
left_child=1 2 7 12 8 15 13 10 42 17 11 36 33 48 24 -3 27 18 -8 -20 21 57 23 45 -11 -22 -17 38 29 -26 -31 46 -33 -2 35 -9 37 -1 55 -40 -41 47 -4 -36 -39 -14 -15 -35 -5 -38 -51 52 54 -54 -34 -10 -25 -16 59 60 -59 -62
right_child=3 5 4 6 -6 -7 9 34 16 14 -12 -13 22 31 20 26 -18 -19 19 -21 25 -23 -24 56 28 -27 -28 -29 -30 30 -32 32 51 41 43 -37 49 44 39 40 -42 -43 -44 -45 -46 -47 -48 -49 -50 50 -52 -53 53 -55 -56 -57 -58 58 -60 -61 61 -63
leaf_value=0 0.045721347053443495 0 0 -0.0017262955622573161 0 3.4689570365946292e-05 0.014351531372654902 0 0 0.067398656607057725 0 0 -0.0016702714856106874 1.6780649373170259e-05 0.052076147704126212 0 -4.2593029002328569e-08 0.073292514039058079 -0.0022430993849808373 -0.0017500744258801342 0.029056293283414837 -0.0019646205454536651 -0.0010645908467527114 -0.0018449110625222951 -0.0010383648353724615 0.069408897627002183 0 0 0.073205780236512932 -0.0026132361415222498 -0.0030239188659750755 5.1808117145984105e-05 0 -0.00088619922039267238 0 0 0 0 0 0 0 6.3207047763510832e-05 0 0 0 -0.00045764618259836468 0.016171565163460518 -0.0035244496183876829 0.016785152377849881 0 0 0.016661146505606031 -0.0047241416841121283 -0.0016290792870862891 -0.0045275242891614532 0 -0.0018449110625222951 0.023154814092583423 0.057376037024995136 0.036968464983907927 -0.0032156005726265424 -0.0014491457786703148
leaf_weight=69 105 55 87 423 142 490 131 482 53 238 2523 58 52 562 566 52 67 187 50 71 694 92 54 52 95 21914 115 57 101 73 50 423 803 62 90 51 757 71 159 80 146 63 80 50 64 54 1901 56 91 96 51 512 58 163 57 97 56 81 323 285 54 77
leaf_count=69 105 55 87 423 142 490 131 482 53 238 2523 58 52 562 566 52 67 187 50 71 694 92 54 52 95 21914 115 57 101 73 50 423 803 62 90 51 757 71 159 80 146 63 80 50 64 54 1901 56 91 96 51 512 58 163 57 97 56 81 323 285 54 77
internal_value=-0.00149947 -0.0199345 -0.022137 0.00213709 -0.0133326 -0.00344663 0.00227904 -0.0240908 -0.0113099 0.0026029 -0.0248693 -0.0224717 -0.00551064 0.00065672 0.00269334 -0.0108362 -0.0093824 -0.00247884 -0.00580952 -0.012124 0.00277465 0.001125 -0.00964925 -0.0115794 -0.000809524 0.00288195 -0.0144251 -0.0104291 -0.00311285 -0.0053945 -0.00895122 0.00108866 0.000127345 -0.00182517 -0.0198232 -0.0209212 -0.0233718 -0.0199412 -0.00961682 -0.00748101 -0.00549557 -0.00422513 -0.0189162 -0.0156429 -0.0227778 -0.00633962 0.00187182 -0.00716949 -0.0030687 -0.024146 -0.0208776 -0.000593263 -0.00132932 -0.00392308 -0.000662791 -0.0136875 -0.0167222 0.00159307 0.000686747 -0.000682092 -0.00336792 -0.00547328
internal_weight=36671 6042 5330 30629 968 712 30075 4362 826 25082 3689 1166 554 4993 24643 222 659 439 252 121 24086 1478 268 214 557 22608 167 592 319 218 123 4479 2016 286 673 533 1108 204 535 385 226 181 167 140 135 106 2463 118 514 904 147 1593 1081 221 860 150 108 1386 820 497 212 131
internal_count=36671 6042 5330 30629 968 712 30075 4362 826 25082 3689 1166 554 4993 24643 222 659 439 252 121 24086 1478 268 214 557 22608 167 592 319 218 123 4479 2016 286 673 533 1108 204 535 385 226 181 167 140 135 106 2463 118 514 904 147 1593 1081 221 860 150 108 1386 820 497 212 131
cat_boundaries=0 35 40 74 108 141 146 180 185 219 248 252 286 320
cat_threshold=0 128 256 2048 67108864 2 8 536870912 2 0 0 32768 0 64 2097152 0 256 1048584 2097152 268435457 0 0 0 0 2097184 2147483648 1 0 33554432 67125256 0 2181038080 0 0 272 16384 205684736 0 32768 16896 128 134250496 8 0 1 131072 1073743872 0 0 0 0 0 131328 8194 0 4195584 0 0 134234112 2097156 33554432 0 0 0 524416 33554432 160 4 0 0 16777240 512 0 71303168 16777216 4 524288 384 8405000 256 0 0 260 0 0 524320 0 0 524288 65536 0 0 0 48 1 2097156 0 268435456 0 32768 0 32 262144 1 4194320 16 1024 268435457 4194304 0 0 8192 256 64 0 16 573536 0 0 0 16777216 0 0 268451844 0 8404992 512 0 64 142606336 0 32768 64 2621440 0 0 2105344 65538 0 0 132 301989888 45080 69599248 2422210628 16384 2147483648 0 0 0 536870912 134217728 0 0 134217728 1088 4194304 16640 2097160 0 8 0 8196 1 0 0 0 0 1056768 0 4105 142606336 16384 34078768 0 1 0 0 131072 33554432 1084310025 2214594048 4194305 1275761828 143960 0 8388608 8388608 131072 536870976 67190784 0 128 0 0 536871424 1024 16 0 0 0 1 0 0 8388608 0 1024 0 256 4 4194304 0 268435456 129 65536 16777216 1073741824 4227072 2107392 0 0 256 0 0 0 8 0 0 0 0 0 0 0 0 0 0 1048576 0 268435457 0 0 0 0 2097152 2147483648 1 0 33554432 16384 134250496 0 36 0 0 2097152 0 8192 2625536 270794752 0 268435456 0 1024 0 65536 0 4 0 0 524288 33554432 536870912 128 537919488 512 1024 0 20480 0 1107312640 2048 0 8192 16777216 0 32 0 8396800 1073741824 536870912 268435520 512 16384 8192 0 134217728 0 0 16 2147483648 0 18874368 0 0 4 0 0 0 0 16 256 16777216 2 131072 2 0 16384 0 134217728 270336
is_linear=0
shrinkage=0.03


Tree=9
num_leaves=63
num_cat=11
split_feature=44 10 45 9 72 44 0 47 9 49 13 15 1 17 54 11 9 55 13 20 2 15 0 54 17 10 9 9 10 7 70 2 0 13 3 13 10 49 18 25 10 2 2 54 47 27 18 20 2 2 9 40 55 13 54 10 47 9 2 2 39 40
split_gain=2711.5 243.791 101.875 44.9414 25.5973 24.4464 20.8793 16.1034 14.1022 13.4558 11.6626 10.8897 20.0535 9.35458 11.578 8.52565 8.02272 7.08758 6.16944 5.97171 5.59639 5.55908 5.55103 5.27373 9.39556 5.27213 4.98138 4.85735 4.58953 5.06859 4.07303 3.94149 3.31876 3.53937 3.53244 3.27002 3.87439 3.43653 3.26976 3.56836 3.21431 2.96449 3.47459 2.97372 2.87392 2.53664 2.49821 2.40251 2.22904 3.01938 2.11747 2.09749 4.36707 3.58187 2.4374 1.90937 1.88462 1.87835 1.81572 1.75966 1.75095 2.20173
threshold=1.0000000180025095e-35 1.0000000180025095e-35 1.0000000180025095e-35 0 1.0000000180025095e-35 6.5000000000000009 1 1.0000000180025095e-35 2 3.5000000000000004 6.5000000000000009 -0.24999999999999997 14.104700000000001 31.500000000000004 163.51408333333336 3 4 27.021666666666668 6.5000000000000009 19.700500000000002 38.57330000000001 0.25000000000000017 5 161.81604166666668 24.500000000000004 1.5000000000000002 6 7 1.0000000180025095e-35 52.126500000000007 1.0000000180025095e-35 38.035350000000001 8 11.500000000000002 2571.4500000000003 7.5000000000000009 1.0000000180025095e-35 1.5000000000000002 27.815500000000004 25.145000000000003 1.5000000000000002 38.839500000000008 43.694400000000009 30.267666666666674 82.500000000000014 14.5275 50.615000000000002 19.153000000000002 39.593800000000009 42.784300000000009 9 48.705000000000005 17.171250000000004 6.5000000000000009 85.751250000000013 1.0000000180025095e-35 1.0000000180025095e-35 10 39.229850000000006 41.88235000000001 60.45000000000001 55.225000000000009
decision_type=2 2 2 9 2 2 9 2 9 2 2 2 2 2 8 9 9 10 2 2 2 2 9 10 2 2 9 9 2 2 2 2 9 2 2 2 2 2 2 2 2 2 2 10 2 2 2 2 2 2 9 2 8 2 8 2 2 9 2 2 2 2
left_child=1 2 7 10 9 15 18 11 13 45 19 12 38 14 21 40 35 30 31 -2 -9 -7 23 55 -25 26 -17 -24 29 46 41 -3 33 34 -28 36 37 -10 39 -1 60 43 48 -11 -22 -4 -12 -41 -43 -50 -34 -40 -53 54 -54 57 -47 -18 -31 -13 61 -5
right_child=3 6 4 5 -6 8 -8 20 16 17 28 59 -14 -15 -16 25 22 -19 -20 -21 44 -23 27 24 -26 -27 32 -29 -30 58 -32 -33 50 -35 -36 -37 -38 -39 51 47 -42 42 -44 -45 -46 56 -48 -49 49 -51 -52 52 53 -55 -56 -57 -58 -59 -60 -61 -62 -63
leaf_value=0 -0.0017927072422971775 0 0 -0.001601624135531197 0 0.05547659010042251 3.3648883254967897e-05 0 0.033314028649752837 0 -0.0021887413071326328 0 0 0.069640634066210572 -0.0020466959220327655 0.0064740918199729424 0.050513863273002425 -4.1315238132258715e-08 0 -0.0016783322070476751 0 -0.0017750047949636953 0.023703146612931315 -0.0026248192362211265 0.076904682162813362 0.018009026162103283 -0.00025917948875500821 0.064051357894456332 0.01859837991738306 0.020324925300753034 0 0 -0.0006890936928940568 -0.0027832793435535108 -0.0015435244959813136 0.042279920886749839 0.061804372630455288 -0.0026181516963943085 0 0 0.016293554262671473 0 0 0 0 0 -0.0015993379531706545 0 0 0 1.7022339458602941e-05 0 0 0 0 0.060123060920530623 0 -0.00088260700726385021 -0.0020469161816211614 0 -0.001084788106052898 -0.0035007435906819445
leaf_weight=69 95 94 63 174 142 107 490 80 57 51 81 2406 58 182 51 432 209 67 62 89 515 92 671 53 64 1083 318 22499 106 74 57 66 325 52 71 304 61 125 439 71 98 58 60 114 78 52 52 64 194 58 1728 294 58 57 56 506 52 562 53 117 185 70
leaf_count=69 95 94 63 174 142 107 490 80 57 51 81 2406 58 182 51 432 209 67 62 89 515 92 671 53 64 1083 318 22499 106 74 57 66 325 52 71 304 61 125 439 71 98 58 60 114 78 52 52 64 194 58 1728 294 58 57 56 506 52 562 53 117 185 70
internal_value=-0.00156737 -0.0199345 -0.022137 0.0020558 -0.0133326 0.00221134 -0.00344663 -0.0240908 0.00257249 -0.0113099 -0.006375 -0.0248693 -0.0224717 -0.00276923 -0.0066 0.00018254 0.00266442 -0.0093824 -0.0108362 -0.0126522 -0.0198232 -0.00333166 0.00274485 0.000884615 -0.00520513 0.000656133 -4.10105e-06 0.00285634 -0.00339344 -0.00553846 -0.0104291 -0.0144375 -0.000522364 -0.00285366 -0.00193573 -0.000931777 -0.00354321 -0.00573626 -0.0233718 -0.0199412 -0.00336871 -0.00961682 -0.0111081 -0.00627273 -0.020828 -0.0189162 -0.00963158 -0.0227778 -0.0123871 -0.0111667 -1.01792e-05 -0.024146 -0.0227419 -0.0189298 -0.022 0.00144949 -0.0160385 0.000509728 -0.00125197 -0.0259774 -0.00455245 -0.00622131
internal_weight=36671 6042 5330 30629 968 30079 712 4362 25543 826 550 3689 1166 432 250 4536 25111 659 222 184 673 199 24564 1394 117 4009 2926 23170 366 260 592 160 2494 441 389 547 243 182 1108 204 527 535 370 165 593 167 133 135 310 252 2053 904 465 171 114 1277 104 771 127 2523 429 244
internal_count=36671 6042 5330 30629 968 30079 712 4362 25543 826 550 3689 1166 432 250 4536 25111 659 222 184 673 199 24564 1394 117 4009 2926 23170 366 260 592 160 2494 441 389 547 243 182 1108 204 527 535 370 165 593 167 133 135 310 252 2053 904 465 171 114 1277 104 771 127 2523 429 244
cat_boundaries=0 35 40 74 102 136 141 175 209 214 248 282
cat_threshold=0 128 0 2048 0 2 8 2 2 0 0 134266880 0 0 0 4 256 1048584 2097152 268435457 67108864 4194304 0 0 2097152 2147483648 1 1 33554432 16408 0 2181038080 0 0 256 16384 205684736 0 32768 16896 128 134250496 0 0 1 0 1073743872 0 0 0 0 0 131328 8194 2097152 4195584 1 0 134234112 2097156 33554432 0 0 0 524416 33554432 672 4 0 67108864 16777232 512 0 67108864 0 256 8192 0 16 4096 0 0 0 0 139264 4325376 268437505 268453892 4224 578813952 16384 2147483648 8256 0 32768 0 0 0 8 0 16640 2048 0 0 8 8192 256 131072 0 16 557152 0 0 0 16777216 0 0 16384 0 8388608 512 0 64 142606336 0 32768 65 2621440 0 32 2105344 65539 8 0 132 4194304 268437504 45064 69599248 274726980 16384 65536 0 0 131072 16777216 67108864 2147483648 33152 0 524288 536936960 16777216 536870912 0 0 2097152 1 8192 536870914 0 0 2 0 768 0 4194304 0 0 129 0 0 1140850688 0 2097152 4194304 0 0 0 536870912 64 0 0 16384 1088 4194304 256 2097160 0 8 0 8196 24577 0 16 0 0 8192 0 4104 8388608 0 67633168 0 128 0 134217744 131072 33554432 134234112 557088 69210112 4198400 32769 8 32768 2097152 0 0 2097152 0 8 268435456 0 0 0 0 0 524288 0 544 0 0 536870946 0 2147483652 131072 0 0 2048 0 32 17301504 0 64 0 1024 4194304 0 8388608 1073741824 536870912 64 0 0 0 0 0 0 0 0 0 0 2097152 0 0 4 0 0 0 0 16 0 0 0 0 0 0 16384 0 134217728 8192
is_linear=0
shrinkage=0.03


Tree=10
num_leaves=63
num_cat=11
split_feature=44 10 45 11 0 45 11 0 47 10 15 1 11 47 14 11 49 17 13 11 10 14 13 44 2 20 10 47 2 54 54 15 11 0 13 22 2 70 18 54 17 0 47 11 22 2 49 46 14 13 10 19 22 47 1 4 46 54 17 21 20 22
split_gain=2715.33 256.371 103.635 49.5367 27.9933 25.7586 17.346 16.6036 15.9171 11.1109 10.9367 15.4314 10.7496 10.4606 10.1453 9.35568 8.97404 7.92757 6.54263 5.94955 5.63883 5.44009 14.2253 5.19492 4.75733 4.73859 4.50519 4.47348 4.79907 4.3786 4.2127 5.21986 3.79096 3.6786 3.55458 4.93283 3.24482 3.18635 5.7667 3.12432 4.87027 3.09806 3.02662 2.88782 2.70826 2.99452 2.78403 2.63412 2.40015 2.38542 3.23269 3.19921 4.812 2.26864 2.26287 2.19818 2.17773 2.00544 1.86389 1.85413 1.80519 2.06838
threshold=1.0000000180025095e-35 1.0000000180025095e-35 1.0000000180025095e-35 0 1 3.5000000000000004 2 3 1.0000000180025095e-35 1.0000000180025095e-35 -0.24999999999999997 14.104700000000001 4 6.5000000000000009 -0.24999999999999997 5 2.5000000000000004 35.500000000000007 6.5000000000000009 6 1.5000000000000002 -0.5 6.5000000000000009 30.500000000000004 38.765300000000003 132.75850000000003 1.5000000000000002 109.50000000000001 40.16020000000001 21.279333333333337 51.947166666666675 -0.68301270189221952 7 8 7.5000000000000009 33.959250000000019 38.035350000000001 1.0000000180025095e-35 144.17800000000003 135.52683333333337 24.500000000000004 9 78.500000000000014 10 62.397166666666671 39.368600000000008 34.500000000000007 2.5000000000000004 -0.6830127018922193 7.5000000000000009 1.0000000180025095e-35 15.026000000000002 62.992583333333343 174.50000000000003 9.5998500000000018 22.715000000000003 16.500000000000004 4.083541666666668 37.500000000000007 64.693333333333342 61.38150000000001 31.259583333333342
decision_type=2 2 2 9 9 2 9 9 2 2 2 2 9 2 2 9 2 2 2 9 2 2 2 2 2 2 2 2 2 10 8 2 9 9 2 2 2 2 2 10 2 9 2 9 2 2 2 2 2 2 2 2 2 2 2 2 2 10 2 2 2 2
left_child=1 2 8 9 13 12 17 18 10 14 11 30 26 48 23 34 -6 21 36 49 32 -7 47 25 -10 -2 29 28 -16 -5 31 -1 -14 39 35 -8 -3 -32 -39 -21 -41 58 54 53 46 -46 -18 -23 -4 50 51 -17 -53 -35 57 -11 -37 -26 60 -36 61 -34
right_child=3 7 4 5 16 6 15 -9 24 55 -12 -13 20 -15 27 19 44 -19 -20 33 -22 22 -24 -25 42 -27 -28 -29 -30 -31 37 -33 41 43 59 56 -38 38 -40 40 -42 -43 -44 -45 45 -47 -48 -49 -50 -51 -52 52 -54 -55 -56 -57 -58 -59 -60 -61 -62 -63
leaf_value=0 -0.0018189979810308763 0 0 -0.0020238123928954851 0 -0.0011191712995611469 0.01806121294708353 3.2554048241187771e-05 0 -0.0015733598304764778 0 0 0.00019680583928719471 0 -0.0019019391925329083 0.044358033066043294 0 0.074786137449031925 0 0.020705482501361873 0.016831342136797739 4.3800856107992875e-05 -0.0034238763772128701 0.043537505225097903 0 -0.00038806420728689455 0.016329017988716728 -0.0015716538756119357 -0.0015905606727138043 -0.0015821565755665449 0 0 -0.00020903739450532755 -0.0016292639825752045 -0.0017196216073959427 -0.0027877474145453526 0 0 0 -0.0020354611310057957 0.033245241572269268 1.5146111535103294e-05 0 0.054955890284844752 0 0 0 -0.0027371613810456656 0 0.049477081683969137 0.041518211697734918 -0.0058097195602455163 -0.0028894720940236575 0.047813084237297937 0 0.058777559562586526 -0.005611352382665238 0 -0.0044727493056892585 0.060732635498344824 -0.0003010029238944492 -0.0021421856796339524
leaf_weight=100 75 89 141 62 81 88 117 488 91 50 2570 53 430 98 75 54 111 134 57 789 818 58 60 81 55 52 83 66 61 286 802 85 190 376 120 63 76 55 76 54 69 1009 84 23300 159 68 177 70 123 330 125 59 87 433 74 93 64 382 60 177 280 262
leaf_count=100 75 89 141 62 81 88 117 488 91 50 2570 53 430 98 75 54 111 134 57 789 818 58 60 81 55 52 83 66 61 286 802 85 190 376 120 63 76 55 76 54 69 1009 84 23300 159 68 177 70 123 330 125 59 87 433 74 93 64 382 60 177 280 262
internal_value=-0.00161407 -0.0199024 -0.0221365 0.00202153 -0.01319 0.00218518 0.00250314 -0.00295775 -0.0240725 -0.00680462 -0.0248428 -0.0224398 -0.000241379 -0.0198226 -0.00943902 0.00259851 -0.00868317 -0.00357143 -0.0095431 0.00268115 0.000391304 -0.00656522 -0.00944681 -0.00478846 -0.0198717 -0.0085748 -0.00461905 -0.0142277 -0.0111176 -0.00622414 -0.0231896 -0.0190541 -0.000388615 0.0027555 -0.00130127 -0.0040082 -0.013 -0.0240096 -0.0196718 0.000852495 -0.00358537 -0.000992269 -0.0208487 0.00282711 -0.00736893 -0.00981938 -0.0054375 -0.00379687 -0.0234773 -0.000157895 -0.00198462 -0.00435 -0.00665753 0.00102198 -0.0217162 0.000272727 -0.00810236 -0.0225378 -0.00238653 0.000878788 -0.002 -0.00317257
internal_weight=36755 6095 5385 30660 958 30107 26627 710 4427 553 3741 1171 3480 362 410 26217 596 410 222 25676 3049 276 188 208 686 127 431 202 136 348 1118 185 2231 25021 541 244 165 933 131 912 123 1801 595 24109 515 227 288 128 264 655 325 200 146 809 511 143 127 437 792 297 732 452
internal_count=36755 6095 5385 30660 958 30107 26627 710 4427 553 3741 1171 3480 362 410 26217 596 410 222 25676 3049 276 188 208 686 127 431 202 136 348 1118 185 2231 25021 541 244 165 933 131 912 123 1801 595 24109 515 227 288 128 264 655 325 200 146 809 511 143 127 437 792 297 732 452
cat_boundaries=0 28 33 61 66 93 116 144 172 176 181 207
cat_threshold=0 0 0 0 0 16400 0 134217728 0 0 554172416 18874368 9 512 1024 1048576 0 1073743872 1107369984 1048584 4195072 0 0 24584 0 0 8192 8388608 268451840 692224 67108864 272629856 1 143713408 83886080 4194304 24 0 4096 0 0 0 0 0 0 0 0 0 2147483648 64 8388608 33792 4203648 32768 0 0 2415919360 0 67108864 0 2048 16384 205651968 2097152 32768 16896 0 16 0 33554432 16 0 0 0 0 0 67239936 131074 655360 268435464 4096 587202560 134234112 266240 64 0 0 0 0 16 8 0 2147500288 19267850 65536 3104 0 0 0 0 0 0 0 67108864 0 2048 524288 2147483648 16842752 0 2418016257 141 4098 128 32 327696 96 4 67108944 0 0 0 0 0 4096 0 2048 4194304 0 0 83886080 0 0 65536 5767168 67840 1074003968 256 0 132608 8 524288 2 4104 262144 0 0 0 16777216 768 0 0 8 0 167776256 268435460 67109924 4718592 2147483648 0 512 537003008 2960 525312 0 0 0 0 0 0 1073741824 1 301989888 45064 100925448 274726976 134234112 424161296 102764552 134250592 1 0 8 553656320 67108864 1209008128 0 0 0 131072 0 0 0 136478848 3151872 4 0 335872 32 0 576 0 36700672 0 1048576 0 268435456
is_linear=0
shrinkage=0.03


Tree=11
num_leaves=63
num_cat=8
split_feature=44 10 45 9 72 44 9 47 11 3 10 15 1 14 70 14 11 63 17 13 70 17 16 9 46 54 10 11 44 2 54 15 3 9 2 24 10 15 51 70 18 46 19 47 9 10 1 55 20 31 24 41 46 38 25 1 41 42 45 17 2 39
split_gain=2704.68 256.371 103.635 60.4877 26.9142 26.6271 17.3473 15.9171 11.8182 11.8039 11.8008 10.9367 15.4314 10.7314 9.37266 9.18733 9.18133 8.66796 8.24685 8.24959 6.38571 6.19834 11.8091 5.67639 5.58656 5.56193 5.17907 5.43681 4.84341 4.75733 4.2127 5.21986 3.66815 3.43712 3.39717 3.36953 3.3423 3.82332 3.54255 3.18635 5.7667 3.17709 3.09881 3.02662 2.91619 2.68676 2.64587 2.58279 2.4474 2.40615 2.36921 2.34826 2.30616 2.96599 2.27722 2.26287 2.17 3.2032 2.26224 2.16701 2.0938 3.02325
threshold=1.0000000180025095e-35 1.0000000180025095e-35 1.0000000180025095e-35 0 1.0000000180025095e-35 6.5000000000000009 1 1.0000000180025095e-35 2 2427.5500000000006 1.0000000180025095e-35 -0.24999999999999997 14.104700000000001 -0.5 1.0000000180025095e-35 -0.24999999999999997 3 1.0000000180025095e-35 31.500000000000004 6.5000000000000009 1.0000000180025095e-35 24.500000000000004 10.500000000000002 4 1.5000000000000002 65.500666666666675 1.5000000000000002 5 24.500000000000004 38.765300000000003 51.947166666666675 -0.68301270189221952 2571.4500000000003 6 38.853450000000009 15.515000000000002 1.0000000180025095e-35 -0.68301270189221952 19.789826266195526 1.0000000180025095e-35 144.17800000000003 1.0000000180025095e-35 8.0170000000000012 78.500000000000014 7 1.0000000180025095e-35 10.104150000000002 27.021666666666668 36.426000000000009 27.285000000000004 24.165000000000003 44.20000000000001 2.5000000000000004 47.820000000000007 18.085000000000004 9.5998500000000018 63.066666666666684 53.738333333333351 3.5000000000000004 23.500000000000004 39.368600000000008 52.505000000000003
decision_type=2 2 2 9 2 2 9 2 9 2 2 2 2 2 2 2 9 2 2 2 2 2 2 9 2 8 2 9 2 2 8 2 2 9 2 2 2 2 2 2 2 2 2 2 9 2 2 10 2 2 2 2 2 2 2 2 2 2 2 2 2 2
left_child=1 2 7 10 9 8 13 11 45 20 15 12 30 -7 17 28 21 -3 19 -15 24 22 52 36 25 42 27 -10 35 -9 31 -1 44 -25 -17 -2 37 38 -18 -32 -41 -35 -4 55 -29 56 48 51 -34 -36 -28 -26 -8 -54 -12 -31 57 58 -5 -50 -53 -62
right_child=3 14 4 5 -6 6 16 29 26 -11 54 -13 -14 18 -16 34 23 -19 -20 -21 -22 -23 -24 33 47 -27 50 32 -30 43 39 -33 46 41 49 -37 -38 -39 -40 40 -42 -43 -44 -45 -46 -47 -48 -49 59 -51 -52 60 53 -55 -56 -57 -58 -59 -60 -61 61 -63
leaf_value=0 -0.0004326878113285714 0 0 -0.0009644834698567191 0 0.057565634229899632 0.062704049858747168 0 0.015903389677107378 0 -0.0015261590355621834 0 0 -0.0023144975802301547 0 -0.0015468592740290107 -0.0010841046876686028 0 0.0067605894484157221 -0.0061142323815662255 0 0.068967410843347079 -0.003308867870127651 0.027349295411080183 0 0 0.01632640187269381 -0.001616841385465315 0.002608483052938444 0 0 0 -0.00088557075236985914 -0.001218198885664458 -0.0012026940335821924 -0.0018144974219428786 0.0598621836248001 0.014274889825188137 -0.0073949512705807283 0 0 0.060001520903569909 0 0 2.4205203982819533e-05 -0.0003696677593762334 9.9256717447303471e-06 -1.8618331728831671e-08 -0.00029993426656178975 -0.0018989381266883178 -0.0042559047880835737 0 -0.0071814959352855343 0.048170539000072905 0.02010144818912267 0 -0.00041105798116724602 -0.003391534254454914 -0.0027604607886576203 -0.0036077072865620956 0 0
leaf_weight=100 54 563 57 116 151 233 77 91 430 166 50 2570 53 95 78 52 53 69 77 62 51 310 61 683 77 99 1036 425 76 437 802 85 58 281 64 87 267 284 57 55 76 23038 98 84 1703 124 98 59 80 78 78 84 53 58 86 74 89 72 51 64 59 57
leaf_count=100 54 563 57 116 151 233 77 91 430 166 50 2570 53 95 78 52 53 69 77 62 51 310 61 683 77 99 1036 425 76 437 802 85 58 281 64 87 267 284 57 55 76 23038 98 84 1703 124 98 59 80 78 78 84 53 58 86 74 89 72 51 64 59 57
internal_value=-0.00164998 -0.0199024 -0.0221365 0.00197847 -0.01319 0.00215845 0.00252937 -0.0240725 9.49378e-06 -0.0110149 -0.00782585 -0.0248428 -0.0224398 -0.00316352 -0.00295775 -0.0105036 0.00263499 -0.00174684 -0.00776923 -0.0117134 -0.00916849 -0.0011652 -0.00471084 0.00272156 -0.00828814 -0.0116457 0.000536414 -0.000138558 -0.00626267 -0.0198717 -0.0231896 -0.0190541 -0.00069155 0.0027976 -0.0152474 -0.00955319 -4.02383e-05 -0.00179695 -0.00654545 -0.0240096 -0.0196718 0.00285983 -0.0151935 -0.0208487 -0.000256579 -0.00453247 -0.0038 -0.00575 -0.00576238 -0.0128451 0.00227289 -0.0069639 -0.000989362 -0.00375676 -0.000308823 -0.0217162 -0.00605488 -0.00754393 -0.00526347 -0.00366667 -0.00525 -0.00786207
internal_weight=36755 6095 5385 30660 958 30113 25689 4427 4424 807 547 3741 1171 467 710 411 25222 632 234 157 641 559 249 24663 590 254 3972 2858 217 686 1118 185 2428 24002 194 141 661 394 110 933 131 23319 155 595 2128 452 300 336 202 142 1114 277 188 111 136 511 328 239 167 144 200 116
internal_count=36755 6095 5385 30660 958 30113 25689 4427 4424 807 547 3741 1171 467 710 411 25222 632 234 157 641 559 249 24663 590 254 3972 2858 217 686 1118 185 2428 24002 194 141 661 394 110 933 131 23319 155 595 2128 452 300 336 202 142 1114 277 188 111 136 511 328 239 167 144 200 116
cat_boundaries=0 32 66 94 122 156 184 218 252
cat_threshold=0 524288 0 0 0 67108866 0 536870914 1048578 0 536871424 134234112 0 0 1 0 256 135266312 2097152 268435457 0 4194368 0 0 0 2147483648 0 1 1 67108888 16 3254779904 128 0 0 2107392 0 0 2056 0 0 0 0 32768 131072 2 2097152 1024 1 8388608 134217728 0 0 8388608 0 32768 2621568 2097152 161 4 33554432 0 0 512 131200 67108864 0 0 0 33554432 0 0 0 0 0 0 84017168 131072 268437632 18437 0 0 1073758208 2147745792 268468305 8192 0 0 0 128 0 0 16640 2048 159835274 83886080 32 0 0 0 0 0 0 0 0 0 0 0 2214592512 0 262208 268435456 12 6272 32896 512 327680 256 0 0 0 8 4194304 268435456 0 2147483648 268435457 64 512 128 4210752 268435520 0 0 8 0 0 0 0 2097152 1073741824 16 33554432 16 0 0 32 0 65536 67239984 0 128 0 16 0 23068672 0 0 16777216 0 0 1024 2097152 64 0 0 35667968 67108897 2147484768 37756930 0 0 8913920 537001986 4096 524288 33554432 67108864 0 0 0 0 268435456 1048577 2147483648 0 8 147456 131072 131072 0 16 4128 134217728 4194305 65536 32768 0 0 524288 0 0 512 0 0 0 512 0 5242945 8388608 16384 0 0 0 142607368 134217984 0 33554432 0 0 2097408 2097408 167788544 0 0 0 268435456 0 0 0 0 64 0 0 0 0 33554496 536870944 0 2097156 0 0 0 65536 2 1073758240 788480 0 64 256 1024 4194336
is_linear=0
shrinkage=0.03


Tree=12
num_leaves=63
num_cat=12
split_feature=44 45 9 0 44 15 0 48 49 47 9 9 17 0 16 17 72 14 26 17 46 49 47 9 52 2 18 0 9 1 27 13 14 22 47 43 13 13 20 24 2 52 9 50 15 52 7 2 9 46 26 16 3 13 47 56 47 39 0 45 24 46
split_gain=2699.36 154.4 60.371 39.6505 27.643 25.9608 37.5477 18.5401 17.6438 16.0384 14.7884 13.4896 9.33799 8.74852 9.05011 19.2645 25.7673 7.31648 7.10018 6.91676 7.11015 6.83958 6.64839 6.60125 5.8795 5.40361 5.39685 5.16318 5.81151 4.24465 4.19982 4.05672 4.05318 4.91181 3.90803 3.95918 4.75933 4.82165 3.98547 5.46093 3.81526 3.62396 3.44743 3.35232 3.16598 3.12085 3.02941 2.98441 2.74211 2.71918 2.88167 2.70447 2.59791 2.68585 2.55343 2.50299 2.45107 2.31433 2.26772 2.68133 2.19947 2.17745
threshold=1.0000000180025095e-35 1.0000000180025095e-35 0 1 8.5000000000000018 -0.24999999999999997 2 1.0000000180025095e-35 12.500000000000002 1.0000000180025095e-35 3 4 35.500000000000007 5 10.500000000000002 24.500000000000004 1.0000000180025095e-35 -0.5 16.73833333333334 31.500000000000004 7.5000000000000009 3.5000000000000004 1.0000000180025095e-35 6 1.0016722408026759 41.88235000000001 35.927000000000007 7 8 6.0614500000000007 14.420833333333336 5.5000000000000009 -0.24999999999999997 25.665583333333334 1.0000000180025095e-35 26.233500000000003 6.5000000000000009 7.5000000000000009 36.426000000000009 16.865000000000006 42.090700000000005 18.066359387538665 9 25.733213644524241 0.6830127018922193 1.0016722408026759 12.616500000000002 39.180850000000007 10 1.5000000000000002 24.248333333333338 6.5000000000000009 2675.4000000000001 11.500000000000002 109.50000000000001 -12.458708333333318 45.500000000000007 65.140000000000015 11 3.5000000000000004 19.865000000000006 20.500000000000004
decision_type=2 2 9 9 2 2 9 2 2 2 9 9 2 9 2 2 2 2 2 2 2 2 2 9 2 2 2 9 9 2 2 2 2 2 2 2 2 2 2 2 2 2 9 2 2 2 2 2 9 2 2 2 2 2 2 10 2 2 9 2 2 2
left_child=1 5 12 9 11 6 26 22 29 18 17 51 32 14 -12 16 -16 -6 -3 20 -19 -5 25 31 -9 52 -1 42 57 -8 -11 47 43 -34 35 -31 -37 38 -38 -40 -36 56 -13 55 58 -32 -26 -15 -25 -46 -51 -4 53 -7 60 -2 -10 -29 -23 -60 -35 -44
right_child=2 3 4 21 10 7 8 24 41 30 13 27 -14 23 15 -17 -18 19 -20 -21 -22 44 -24 48 46 -27 -28 28 -30 34 45 -33 33 54 40 36 37 -39 39 -41 -42 -43 61 -45 49 -47 -48 -49 -50 50 -52 -53 -54 -55 -56 -57 -58 -59 59 -61 -62 -63
leaf_value=0.018989960924704962 -0.0030695763860696004 0 -0.0026736294060556911 0 0.0713029913057832 0 0 0 0 0 0.041610108112198431 0.015057695412018769 -7.4859090044437668e-05 -0.0066982716323827785 0.036063566695386087 0.057905384548920205 -0.0043096128199476376 -0.0022242947235078642 0 0.010540606141464841 -0.0053735768837783757 3.1742395964476045e-09 0 0.038301423568701413 0 0 0 -0.0018018445462070162 0.012686439250221121 0 0 0.039946468867609081 -0.001789291019470379 -0.0021712567089847627 0 0 0 0 0 0 0 0 -0.0016408017313300665 -0.00016373374595637485 0 0 0 0.049915922350189955 0.064922009952202125 0 -0.0011523715718953738 -0.00092475771900576357 0 0 -0.0015349222649169425 -0.0015353321030088171 0 0.013300392003167252 0 0 -0.0014624605782337461 -0.0069300808978496132
leaf_weight=91 58 91 226 94 220 1917 52 292 99 51 1237 226 123 142 62 183 68 74 214 79 68 107 69 747 52 124 52 379 3419 57 68 456 54 71 109 660 58 159 64 108 58 65 605 71 52 121 89 66 21420 75 54 208 237 352 58 66 68 164 137 199 50 60
leaf_count=91 58 91 226 94 220 1917 52 292 99 51 1237 226 123 142 62 183 68 74 214 79 68 107 69 747 52 124 52 379 3419 57 68 456 54 71 109 660 58 159 64 108 58 65 605 71 52 121 89 66 21420 75 54 208 237 352 58 66 68 164 137 199 50 60
internal_value=-0.00166794 -0.0199024 0.00195695 -0.0105629 0.00213742 -0.0223435 -0.0193588 -0.0239636 -0.020663 -0.0166216 0.00255765 0.000168527 -0.00780214 0.00265561 0.000461539 -0.00409265 -0.0129231 -0.00285366 -0.0214918 -0.00677376 -0.0107324 -0.00565385 -0.0248881 0.0028043 -0.0182009 -0.0251293 -0.00347059 0.000624923 0.00108912 -0.0221321 -0.011125 -0.000160237 -0.0100374 -0.0127082 -0.0224753 -0.0231212 -0.0235396 -0.0209075 -0.0181304 -0.0158372 -0.0181976 -0.0131638 -0.00142841 -0.00684615 -0.00459615 -0.00906349 -0.0131702 -0.00363462 0.00289313 -0.00793923 -0.00560465 -0.00483784 -0.0254318 -0.0257439 -0.0151006 -0.00982258 -0.015503 -0.00177396 -0.00323025 -0.00436994 -0.0126198 -0.00251111
internal_weight=36755 6095 30660 1263 30109 4832 1700 3132 1557 545 24822 5287 551 24381 1550 313 130 441 305 221 142 718 2699 22831 433 2630 143 4853 3962 1325 240 664 428 233 1273 1106 1049 389 230 172 167 232 891 195 624 189 141 208 22167 181 129 434 2506 2269 179 124 167 543 443 336 121 665
internal_count=36755 6095 30660 1263 30109 4832 1700 3132 1557 545 24822 5287 551 24381 1550 313 130 441 305 221 142 718 2699 22831 433 2630 143 4853 3962 1325 240 664 428 233 1273 1106 1049 389 230 172 167 232 891 195 624 189 141 208 22167 181 129 434 2506 2269 179 124 167 543 443 336 121 665
cat_boundaries=0 32 37 41 75 110 115 146 151 183 217 251 256
cat_threshold=0 0 0 0 0 67108866 0 536870914 1048578 0 536871424 134234112 0 0 1 0 256 135266312 2097152 268435457 0 4194368 0 0 0 2147483776 0 1 1 67108888 16 3254779904 268451840 206213152 67108864 272629860 513 268435456 4096 67108864 4194304 128 0 8 10240 0 0 2056 0 32768 0 0 0 131072 0 2097152 4195328 0 8404992 134217728 0 0 8388608 0 32768 2621568 2097152 33 4 33554432 0 16777216 512 128 71303168 0 32772 0 2097152 8388616 0 0 8 4100 0 0 524320 0 0 2621440 0 71303168 524288 0 0 67108864 4 134217728 0 0 32768 0 0 268435456 5 0 16 1024 268435457 2 301989888 12312 69468160 272629828 16384 4194304 0 0 2097152 256 64 0 128 540736 64 4194304 33024 8 2 8 0 0 8193 0 0 33554432 16 8192 0 96 134217729 128 524304 0 65538 8 134217792 2550829112 102760448 2151677968 8193 0 0 2621696 2147483904 134234112 0 2097152 0 256 1024 1024 67108864 0 32 0 0 0 0 33685504 32 0 3145728 0 0 0 4096 0 1107312672 17301504 0 65 2 0 0 8388608 0 0 512 0 0 0 0 0 536870912 16 0 0 0 1 8192 0 1073741824 0 1024 0 8 0 16384 0 0 0 65536 0 0 12582912 2097154 2147483648 0 0 131088 536870912 134217728 0 16 32 8 0 0 33587200 0 0 524288 8196 0 512 0 2097152 0 1049088 2048 4198401 8388608 16384 33554464 1048576 128 9216 134217728 0 33554432 64 8200 512 33554432 80
is_linear=0
shrinkage=0.03


Tree=13
num_leaves=63
num_cat=11
split_feature=50 10 45 9 45 0 9 0 47 10 10 14 0 16 17 72 15 1 49 47 14 11 3 9 13 55 17 13 9 13 2 0 18 31 18 13 2 55 2 16 47 70 18 9 1 10 22 10 19 15 9 1 22 45 22 2 20 51 67 2 18 13
split_gain=2658.56 254.141 112.775 60.8229 38.3963 32.6365 20.3944 16.6036 15.9171 14.5955 13.6186 12.2957 11.9523 11.1225 21.8374 32.06 10.9367 15.4314 10.4933 10.4606 9.02569 8.71522 8.59354 10.0378 6.54263 6.4661 6.07411 7.69469 5.75352 5.29197 4.75733 4.40405 4.11838 6.09143 3.68188 3.27895 3.27418 3.5487 3.24482 3.22413 3.02662 2.99669 5.45516 2.73733 2.6853 2.62111 2.55064 3.27365 2.43424 2.76564 2.29275 2.26287 2.01302 1.83478 1.82688 3.75389 1.82088 1.7937 1.73457 1.71949 1.70696 1.68357
threshold=1.0000000180025095e-35 1.0000000180025095e-35 1.0000000180025095e-35 0 3.5000000000000004 1 2 3 1.0000000180025095e-35 1.5000000000000002 1.0000000180025095e-35 -0.5 4 10.500000000000002 24.500000000000004 1.0000000180025095e-35 -0.24999999999999997 14.104700000000001 2.5000000000000004 6.5000000000000009 -0.5 5 2571.4500000000003 6 6.5000000000000009 26.870833333333334 29.500000000000004 5.5000000000000009 7 1.5000000000000002 38.765300000000003 8 27.815500000000004 30.841666666666665 8.0325000000000006 5.5000000000000009 43.694400000000009 24.958750000000006 38.035350000000001 11.500000000000002 78.500000000000014 1.0000000180025095e-35 144.17800000000003 9 7.361600000000001 1.0000000180025095e-35 87.295833333333348 1.0000000180025095e-35 143.88800000000003 1.0000000180025095e-35 10 9.5998500000000018 130.5709166666667 24.500000000000004 62.397166666666671 39.368600000000008 27.139500000000002 19.991158267020339 1.0000000180025095e-35 41.88235000000001 84.65600000000002 5.5000000000000009
decision_type=2 2 2 9 2 9 9 9 2 2 2 2 9 2 2 2 2 2 2 2 2 9 2 9 2 10 2 2 9 2 2 9 2 2 2 2 2 8 2 2 2 2 2 9 2 2 2 2 2 2 9 2 2 2 2 2 2 2 2 2 2 2
left_child=1 2 8 10 9 19 11 24 16 22 20 -6 13 43 15 -15 17 32 -7 39 52 29 23 48 38 36 27 -13 35 -14 -10 34 33 -1 -25 -23 37 54 -3 -4 51 -34 -43 61 -22 58 47 53 49 -5 -30 -32 -2 -31 -20 -56 -35 -36 -24 -18 -60 -8
right_child=3 7 5 4 6 18 12 -9 30 -11 -12 26 21 14 -16 -17 59 -19 25 -21 44 28 45 31 -26 -27 -28 -29 50 46 40 -33 41 56 57 -37 -38 -39 -40 -41 -42 42 -44 -45 -46 -47 -48 -49 -50 -51 -52 -53 -54 -55 55 -57 -58 -59 60 -61 -62 -63
leaf_value=0 -0.0036959766440013741 0 0 -0.0015026791274701172 0.031574405569649661 0 -0.0040945721445201193 3.1577426793952142e-05 0 0.015456016639006361 0.014130119445720016 -0.0018991112081271301 -0.0090941089801946148 0.033918831829982947 0.044717295986226688 -0.003980620869315582 0 0 0 0 -0.0017865756263913421 -0.0064587356239598718 -0.0011690394966382494 -0.0021772557575550997 0 2.8391095371043804e-09 -0.003879938117063502 -0.0061502961550995499 0.017147842156981268 -0.0037496488185396709 0 0.0001374555656268368 0 0 -0.00031118865705016818 0.028818300345232879 0 0 0 0 0 0 0 0.029121860205865633 -0.0016190481653331164 -0.00082607000207609313 0.037540341343601291 0.03283680958264594 -0.00030029231651277694 -0.0020169903168460895 0.053153051048942399 0 -0.00034507626695594594 -0.0034445427801133347 0 0 0 -0.0030669945853381069 -0.0021868753428501749 0 -0.0014859767360802501 0.025049921206803979
leaf_weight=65 126 89 140 168 211 81 138 488 91 897 127 68 53 78 218 88 2453 53 117 98 76 205 82 54 57 78 77 69 757 60 437 1352 779 92 384 443 57 87 76 124 84 54 76 1108 160 88 265 89 87 183 22427 74 50 96 124 52 52 57 54 117 53 212
leaf_count=65 126 89 140 168 211 81 138 488 91 897 127 68 53 78 218 88 2453 53 117 98 76 205 82 54 57 78 77 69 757 60 437 1352 779 92 384 443 57 87 76 124 84 54 76 1108 160 88 265 89 87 183 22427 74 50 96 124 52 52 57 54 117 53 212
internal_value=-0.00173242 -0.0198285 -0.0220529 0.00186497 0.00204417 -0.0127203 0.00243065 -0.00295775 -0.0240725 -0.000928881 -0.00803825 -0.00403448 0.00253595 0.000197624 -0.00434375 -0.0125422 -0.0248428 -0.0224398 -0.00794059 -0.0198226 -0.010835 0.00271235 -0.00208197 -0.00147702 -0.0095431 -0.00649515 -0.00919626 -0.0129854 0.00279993 -0.000979057 -0.0198717 -0.000489499 -0.0231896 -0.0193923 -0.00288119 -9.11843e-06 -0.00791533 -0.00892105 -0.013 -0.0234773 -0.0208487 -0.0240627 -0.0198462 0.00139506 -0.0146695 -0.0070722 -5.88234e-05 -0.00226531 -0.00550446 -0.00674359 0.00287842 -0.0217162 -0.00569318 -0.00488462 -0.0073413 -0.00927273 -0.0228333 -0.00203401 -0.00906349 -0.0259377 -0.0115794 -0.000916667
internal_weight=36755 6095 5385 30660 30121 958 26662 710 4427 3459 539 425 26237 1842 384 166 3741 1171 596 362 412 24395 2562 2285 222 515 214 137 23832 563 686 1847 1118 209 495 648 437 380 165 264 595 909 130 1458 236 277 510 245 438 351 23184 511 176 156 293 176 144 441 189 2570 107 350
internal_count=36755 6095 5385 30660 30121 958 26662 710 4427 3459 539 425 26237 1842 384 166 3741 1171 596 362 412 24395 2562 2285 222 515 214 137 23832 563 686 1847 1118 209 495 648 437 380 165 264 595 909 130 1458 236 277 510 245 438 351 23184 511 176 156 293 176 144 441 189 2570 107 350
cat_boundaries=0 32 37 64 69 73 101 136 170 174 205 237
cat_threshold=0 0 0 0 67108864 67108866 0 0 0 0 512 134234112 0 0 1 4 256 143654920 0 268435457 16777217 4194368 4194304 268435456 0 0 0 1 1 67108888 16 3254779904 268451840 692224 67108864 272629856 1 128 32768 8 8192 0 0 2056 0 563204 0 0 67141632 131072 2 2097152 0 0 0 134217728 0 0 0 131072 32768 2097568 1 161 16384 205651968 2097152 32768 16896 301989888 61464 103153672 274726980 0 0 67108864 0 0 4096 0 0 0 0 67110928 0 2048 524288 2231369728 16842752 0 0 0 2130 32896 32 327696 25600 0 524288 2 4104 0 0 524544 2097152 41959424 2097152 301989888 10 268435712 0 536870912 0 131072 64 0 0 71303168 0 2097152 1610612768 0 3145732 0 0 0 128 2 1073741856 268435456 0 0 0 1024 0 2 2147483648 20 2097152 0 134217728 4160 0 16 272646144 64 4194304 1024 0 16 4 0 0 8193 0 0 0 0 134218240 0 5242880 8388608 0 16 0 0 8200 0 1024 37748992 134217728 486674456 102760449 301989952 0 8192 0 2147501072 0 0 0 0 0 268435456 0 32 0 2147483648 0 0 0 2113536 1073872896 0 0 16 0 0 0 65536 0 67108864 40960 0 16777216 0 0 0 131200 536871168 402653184 0 262272 32 0 0 4194304 2097280 0 0 4718592 8196 0 512 0 2097152 2147483648 9437184 2048 72 0 16384 268435488 0 132 1025 134217728
is_linear=0
shrinkage=0.03


Tree=14
num_leaves=63
num_cat=13
split_feature=44 10 45 9 44 0 9 0 16 0 10 9 0 54 12 49 10 49 9 16 14 3 14 10 55 13 55 14 11 13 12 13 9 49 10 2 55 2 1 46 52 13 20 54 24 44 1 1 10 49 55 11 10 0 42 26 9 49 25 49 54 46
split_gain=2663.6 254.141 112.775 55.8859 37.3007 32.6365 20.4359 16.6036 14.757 24.9431 11.8411 11.9641 11.4969 14.9398 24.7969 10.4933 9.97239 9.70705 8.63484 8.46304 7.62286 7.12585 7.05861 9.37148 6.90235 6.54263 6.4661 5.76131 5.43935 5.50023 5.05251 5.78041 4.34776 4.20284 3.97883 3.27418 3.5487 3.24482 3.09255 3.05759 5.53038 2.87876 3.16636 3.05649 4.62463 2.80631 2.72593 2.95435 2.70104 2.54367 2.44327 2.34597 3.69825 2.71675 2.27135 2.18563 2.17123 2.48592 2.0276 1.97841 1.93505 3.1757
threshold=1.0000000180025095e-35 1.0000000180025095e-35 1.0000000180025095e-35 0 4.5000000000000009 1 2 3 7.5000000000000009 4 1.5000000000000002 5 6 161.81604166666668 2023.5000000000002 2.5000000000000004 1.0000000180025095e-35 12.500000000000002 7 11.500000000000002 -0.5 2638.8000000000006 -0.5 1.0000000180025095e-35 20.285000000000004 6.5000000000000009 26.870833333333334 -0.24999999999999997 8 3.5000000000000004 2023.5000000000002 6.5000000000000009 9 2.5000000000000004 1.0000000180025095e-35 43.694400000000009 24.958750000000006 38.035350000000001 8.067750000000002 1.0000000180025095e-35 17.68764763689412 6.5000000000000009 90.58850000000001 209.01250000000002 16.915000000000003 31.500000000000004 11.666200000000002 9.3715500000000009 1.0000000180025095e-35 1.0000000180025095e-35 24.467083333333338 10 1.0000000180025095e-35 11 68.191666666666677 24.015000000000004 12 2.5000000000000004 19.505000000000006 18.500000000000004 89.73612500000003 1.0000000180025095e-35
decision_type=2 2 2 9 2 9 9 9 2 9 2 9 9 10 2 2 2 2 9 2 2 2 2 2 8 2 10 2 9 2 2 2 9 2 2 2 8 2 2 2 2 2 2 10 2 2 2 2 2 2 10 9 2 9 2 2 9 2 2 2 10 2
left_child=1 2 8 16 10 19 22 25 33 24 11 -5 13 51 -15 -7 20 41 27 39 45 28 -6 30 -10 37 35 -14 29 -13 31 -24 -20 -1 54 36 -17 -3 50 -4 -41 49 -43 44 -44 -2 47 -35 58 -11 -22 -8 53 -53 -23 -12 -34 -58 -29 -30 61 -19
